digraph Tree {
node [shape=box] ;
0 [label="X[0] <= 2678.5\ngini = 0.857\nsamples = 15120\nvalue = [2160, 2160, 2160, 2160, 2160, 2160, 2160]"] ;
1 [label="X[0] <= 2369.5\ngini = 0.708\nsamples = 6607\nvalue = [11, 234, 2023, 2160, 209, 1970, 0]"] ;
0 -> 1 [labeldistance=2.5, labelangle=45, headlabel="True"] ;
2 [label="X[6] <= 195.5\ngini = 0.596\nsamples = 3706\nvalue = [0, 5, 940, 2034, 0, 727, 0]"] ;
1 -> 2 ;
3 [label="X[3] <= 15.0\ngini = 0.634\nsamples = 1264\nvalue = [0, 4, 554, 234, 0, 472, 0]"] ;
2 -> 3 ;
4 [label="X[0] <= 2283.0\ngini = 0.233\nsamples = 139\nvalue = [0, 0, 11, 121, 0, 7, 0]"] ;
3 -> 4 ;
5 [label="X[23] <= 0.5\ngini = 0.171\nsamples = 130\nvalue = [0, 0, 9, 118, 0, 3, 0]"] ;
4 -> 5 ;
6 [label="X[0] <= 1967.5\ngini = 0.075\nsamples = 104\nvalue = [0, 0, 2, 100, 0, 2, 0]"] ;
5 -> 6 ;
7 [label="gini = 0.0\nsamples = 1\nvalue = [0, 0, 0, 0, 0, 1, 0]"] ;
6 -> 7 ;
8 [label="X[7] <= 247.5\ngini = 0.057\nsamples = 103\nvalue = [0, 0, 2, 100, 0, 1, 0]"] ;
6 -> 8 ;
9 [label="X[0] <= 2264.5\ngini = 0.02\nsamples = 97\nvalue = [0, 0, 0, 96, 0, 1, 0]"] ;
8 -> 9 ;
10 [label="gini = 0.0\nsamples = 92\nvalue = [0, 0, 0, 92, 0, 0, 0]"] ;
9 -> 10 ;
11 [label="X[5] <= 1190.5\ngini = 0.32\nsamples = 5\nvalue = [0, 0, 0, 4, 0, 1, 0]"] ;
9 -> 11 ;
12 [label="gini = 0.0\nsamples = 4\nvalue = [0, 0, 0, 4, 0, 0, 0]"] ;
11 -> 12 ;
13 [label="gini = 0.0\nsamples = 1\nvalue = [0, 0, 0, 0, 0, 1, 0]"] ;
11 -> 13 ;
14 [label="X[5] <= 725.0\ngini = 0.444\nsamples = 6\nvalue = [0, 0, 2, 4, 0, 0, 0]"] ;
8 -> 14 ;
15 [label="gini = 0.0\nsamples = 2\nvalue = [0, 0, 2, 0, 0, 0, 0]"] ;
14 -> 15 ;
16 [label="gini = 0.0\nsamples = 4\nvalue = [0, 0, 0, 4, 0, 0, 0]"] ;
14 -> 16 ;
17 [label="X[1] <= 346.5\ngini = 0.447\nsamples = 26\nvalue = [0, 0, 7, 18, 0, 1, 0]"] ;
5 -> 17 ;
18 [label="X[8] <= 190.5\ngini = 0.335\nsamples = 20\nvalue = [0, 0, 3, 16, 0, 1, 0]"] ;
17 -> 18 ;
19 [label="X[9] <= 690.0\ngini = 0.204\nsamples = 18\nvalue = [0, 0, 1, 16, 0, 1, 0]"] ;
18 -> 19 ;
20 [label="gini = 0.0\nsamples = 14\nvalue = [0, 0, 0, 14, 0, 0, 0]"] ;
19 -> 20 ;
21 [label="X[1] <= 12.0\ngini = 0.625\nsamples = 4\nvalue = [0, 0, 1, 2, 0, 1, 0]"] ;
19 -> 21 ;
22 [label="gini = 0.0\nsamples = 2\nvalue = [0, 0, 0, 2, 0, 0, 0]"] ;
21 -> 22 ;
23 [label="X[6] <= 167.5\ngini = 0.5\nsamples = 2\nvalue = [0, 0, 1, 0, 0, 1, 0]"] ;
21 -> 23 ;
24 [label="gini = 0.0\nsamples = 1\nvalue = [0, 0, 1, 0, 0, 0, 0]"] ;
23 -> 24 ;
25 [label="gini = 0.0\nsamples = 1\nvalue = [0, 0, 0, 0, 0, 1, 0]"] ;
23 -> 25 ;
26 [label="gini = 0.0\nsamples = 2\nvalue = [0, 0, 2, 0, 0, 0, 0]"] ;
18 -> 26 ;
27 [label="X[1] <= 356.5\ngini = 0.444\nsamples = 6\nvalue = [0, 0, 4, 2, 0, 0, 0]"] ;
17 -> 27 ;
28 [label="gini = 0.0\nsamples = 3\nvalue = [0, 0, 3, 0, 0, 0, 0]"] ;
27 -> 28 ;
29 [label="X[2] <= 19.5\ngini = 0.444\nsamples = 3\nvalue = [0, 0, 1, 2, 0, 0, 0]"] ;
27 -> 29 ;
30 [label="gini = 0.0\nsamples = 1\nvalue = [0, 0, 1, 0, 0, 0, 0]"] ;
29 -> 30 ;
31 [label="gini = 0.0\nsamples = 2\nvalue = [0, 0, 0, 2, 0, 0, 0]"] ;
29 -> 31 ;
32 [label="X[5] <= 1323.0\ngini = 0.642\nsamples = 9\nvalue = [0, 0, 2, 3, 0, 4, 0]"] ;
4 -> 32 ;
33 [label="X[0] <= 2298.0\ngini = 0.48\nsamples = 5\nvalue = [0, 0, 2, 3, 0, 0, 0]"] ;
32 -> 33 ;
34 [label="gini = 0.0\nsamples = 2\nvalue = [0, 0, 2, 0, 0, 0, 0]"] ;
33 -> 34 ;
35 [label="gini = 0.0\nsamples = 3\nvalue = [0, 0, 0, 3, 0, 0, 0]"] ;
33 -> 35 ;
36 [label="gini = 0.0\nsamples = 4\nvalue = [0, 0, 0, 0, 0, 4, 0]"] ;
32 -> 36 ;
37 [label="X[30] <= 0.5\ngini = 0.586\nsamples = 1125\nvalue = [0, 4, 543, 113, 0, 465, 0]"] ;
3 -> 37 ;
38 [label="X[9] <= 590.0\ngini = 0.558\nsamples = 1063\nvalue = [0, 4, 530, 66, 0, 463, 0]"] ;
37 -> 38 ;
39 [label="X[5] <= 1201.5\ngini = 0.508\nsamples = 394\nvalue = [0, 3, 251, 28, 0, 112, 0]"] ;
38 -> 39 ;
40 [label="X[16] <= 0.5\ngini = 0.443\nsamples = 329\nvalue = [0, 3, 236, 28, 0, 62, 0]"] ;
39 -> 40 ;
41 [label="X[6] <= 173.5\ngini = 0.405\nsamples = 317\nvalue = [0, 3, 236, 16, 0, 62, 0]"] ;
40 -> 41 ;
42 [label="X[3] <= 87.5\ngini = 0.27\nsamples = 217\nvalue = [0, 0, 183, 5, 0, 29, 0]"] ;
41 -> 42 ;
43 [label="X[5] <= 238.0\ngini = 0.48\nsamples = 59\nvalue = [0, 0, 38, 2, 0, 19, 0]"] ;
42 -> 43 ;
44 [label="X[13] <= 0.5\ngini = 0.095\nsamples = 20\nvalue = [0, 0, 19, 0, 0, 1, 0]"] ;
43 -> 44 ;
45 [label="gini = 0.0\nsamples = 1\nvalue = [0, 0, 0, 0, 0, 1, 0]"] ;
44 -> 45 ;
46 [label="gini = 0.0\nsamples = 19\nvalue = [0, 0, 19, 0, 0, 0, 0]"] ;
44 -> 46 ;
47 [label="X[5] <= 764.0\ngini = 0.547\nsamples = 39\nvalue = [0, 0, 19, 2, 0, 18, 0]"] ;
43 -> 47 ;
48 [label="X[1] <= 355.5\ngini = 0.494\nsamples = 26\nvalue = [0, 0, 7, 2, 0, 17, 0]"] ;
47 -> 48 ;
49 [label="X[8] <= 221.0\ngini = 0.413\nsamples = 24\nvalue = [0, 0, 7, 0, 0, 17, 0]"] ;
48 -> 49 ;
50 [label="X[6] <= 165.5\ngini = 0.351\nsamples = 22\nvalue = [0, 0, 5, 0, 0, 17, 0]"] ;
49 -> 50 ;
51 [label="X[1] <= 3.5\ngini = 0.255\nsamples = 20\nvalue = [0, 0, 3, 0, 0, 17, 0]"] ;
50 -> 51 ;
52 [label="gini = 0.0\nsamples = 1\nvalue = [0, 0, 1, 0, 0, 0, 0]"] ;
51 -> 52 ;
53 [label="X[9] <= 454.5\ngini = 0.188\nsamples = 19\nvalue = [0, 0, 2, 0, 0, 17, 0]"] ;
51 -> 53 ;
54 [label="X[1] <= 326.0\ngini = 0.408\nsamples = 7\nvalue = [0, 0, 2, 0, 0, 5, 0]"] ;
53 -> 54 ;
55 [label="gini = 0.0\nsamples = 5\nvalue = [0, 0, 0, 0, 0, 5, 0]"] ;
54 -> 55 ;
56 [label="gini = 0.0\nsamples = 2\nvalue = [0, 0, 2, 0, 0, 0, 0]"] ;
54 -> 56 ;
57 [label="gini = 0.0\nsamples = 12\nvalue = [0, 0, 0, 0, 0, 12, 0]"] ;
53 -> 57 ;
58 [label="gini = 0.0\nsamples = 2\nvalue = [0, 0, 2, 0, 0, 0, 0]"] ;
50 -> 58 ;
59 [label="gini = 0.0\nsamples = 2\nvalue = [0, 0, 2, 0, 0, 0, 0]"] ;
49 -> 59 ;
60 [label="gini = 0.0\nsamples = 2\nvalue = [0, 0, 0, 2, 0, 0, 0]"] ;
48 -> 60 ;
61 [label="X[0] <= 2295.0\ngini = 0.142\nsamples = 13\nvalue = [0, 0, 12, 0, 0, 1, 0]"] ;
47 -> 61 ;
62 [label="gini = 0.0\nsamples = 12\nvalue = [0, 0, 12, 0, 0, 0, 0]"] ;
61 -> 62 ;
63 [label="gini = 0.0\nsamples = 1\nvalue = [0, 0, 0, 0, 0, 1, 0]"] ;
61 -> 63 ;
64 [label="X[7] <= 251.5\ngini = 0.153\nsamples = 158\nvalue = [0, 0, 145, 3, 0, 10, 0]"] ;
42 -> 64 ;
65 [label="X[5] <= 546.5\ngini = 0.133\nsamples = 155\nvalue = [0, 0, 144, 1, 0, 10, 0]"] ;
64 -> 65 ;
66 [label="X[3] <= 101.5\ngini = 0.022\nsamples = 91\nvalue = [0, 0, 90, 0, 0, 1, 0]"] ;
65 -> 66 ;
67 [label="X[5] <= 360.5\ngini = 0.165\nsamples = 11\nvalue = [0, 0, 10, 0, 0, 1, 0]"] ;
66 -> 67 ;
68 [label="gini = 0.0\nsamples = 8\nvalue = [0, 0, 8, 0, 0, 0, 0]"] ;
67 -> 68 ;
69 [label="X[7] <= 197.0\ngini = 0.444\nsamples = 3\nvalue = [0, 0, 2, 0, 0, 1, 0]"] ;
67 -> 69 ;
70 [label="gini = 0.0\nsamples = 1\nvalue = [0, 0, 0, 0, 0, 1, 0]"] ;
69 -> 70 ;
71 [label="gini = 0.0\nsamples = 2\nvalue = [0, 0, 2, 0, 0, 0, 0]"] ;
69 -> 71 ;
72 [label="gini = 0.0\nsamples = 80\nvalue = [0, 0, 80, 0, 0, 0, 0]"] ;
66 -> 72 ;
73 [label="X[9] <= 563.0\ngini = 0.268\nsamples = 64\nvalue = [0, 0, 54, 1, 0, 9, 0]"] ;
65 -> 73 ;
74 [label="X[7] <= 246.0\ngini = 0.191\nsamples = 57\nvalue = [0, 0, 51, 1, 0, 5, 0]"] ;
73 -> 74 ;
75 [label="X[5] <= 556.0\ngini = 0.163\nsamples = 56\nvalue = [0, 0, 51, 0, 0, 5, 0]"] ;
74 -> 75 ;
76 [label="gini = 0.0\nsamples = 1\nvalue = [0, 0, 0, 0, 0, 1, 0]"] ;
75 -> 76 ;
77 [label="X[5] <= 662.5\ngini = 0.135\nsamples = 55\nvalue = [0, 0, 51, 0, 0, 4, 0]"] ;
75 -> 77 ;
78 [label="X[9] <= 259.0\ngini = 0.32\nsamples = 20\nvalue = [0, 0, 16, 0, 0, 4, 0]"] ;
77 -> 78 ;
79 [label="gini = 0.0\nsamples = 2\nvalue = [0, 0, 0, 0, 0, 2, 0]"] ;
78 -> 79 ;
80 [label="X[1] <= 8.0\ngini = 0.198\nsamples = 18\nvalue = [0, 0, 16, 0, 0, 2, 0]"] ;
78 -> 80 ;
81 [label="gini = 0.0\nsamples = 1\nvalue = [0, 0, 0, 0, 0, 1, 0]"] ;
80 -> 81 ;
82 [label="X[5] <= 658.5\ngini = 0.111\nsamples = 17\nvalue = [0, 0, 16, 0, 0, 1, 0]"] ;
80 -> 82 ;
83 [label="gini = 0.0\nsamples = 16\nvalue = [0, 0, 16, 0, 0, 0, 0]"] ;
82 -> 83 ;
84 [label="gini = 0.0\nsamples = 1\nvalue = [0, 0, 0, 0, 0, 1, 0]"] ;
82 -> 84 ;
85 [label="gini = 0.0\nsamples = 35\nvalue = [0, 0, 35, 0, 0, 0, 0]"] ;
77 -> 85 ;
86 [label="gini = 0.0\nsamples = 1\nvalue = [0, 0, 0, 1, 0, 0, 0]"] ;
74 -> 86 ;
87 [label="X[4] <= 59.0\ngini = 0.49\nsamples = 7\nvalue = [0, 0, 3, 0, 0, 4, 0]"] ;
73 -> 87 ;
88 [label="X[1] <= 345.0\ngini = 0.375\nsamples = 4\nvalue = [0, 0, 3, 0, 0, 1, 0]"] ;
87 -> 88 ;
89 [label="gini = 0.0\nsamples = 3\nvalue = [0, 0, 3, 0, 0, 0, 0]"] ;
88 -> 89 ;
90 [label="gini = 0.0\nsamples = 1\nvalue = [0, 0, 0, 0, 0, 1, 0]"] ;
88 -> 90 ;
91 [label="gini = 0.0\nsamples = 3\nvalue = [0, 0, 0, 0, 0, 3, 0]"] ;
87 -> 91 ;
92 [label="X[14] <= 0.5\ngini = 0.444\nsamples = 3\nvalue = [0, 0, 1, 2, 0, 0, 0]"] ;
64 -> 92 ;
93 [label="gini = 0.0\nsamples = 2\nvalue = [0, 0, 0, 2, 0, 0, 0]"] ;
92 -> 93 ;
94 [label="gini = 0.0\nsamples = 1\nvalue = [0, 0, 1, 0, 0, 0, 0]"] ;
92 -> 94 ;
95 [label="X[3] <= 237.0\ngini = 0.597\nsamples = 100\nvalue = [0, 3, 53, 11, 0, 33, 0]"] ;
41 -> 95 ;
96 [label="X[8] <= 133.0\ngini = 0.621\nsamples = 63\nvalue = [0, 3, 22, 7, 0, 31, 0]"] ;
95 -> 96 ;
97 [label="X[5] <= 193.5\ngini = 0.311\nsamples = 26\nvalue = [0, 0, 5, 0, 0, 21, 0]"] ;
96 -> 97 ;
98 [label="gini = 0.0\nsamples = 1\nvalue = [0, 0, 1, 0, 0, 0, 0]"] ;
97 -> 98 ;
99 [label="X[4] <= 126.0\ngini = 0.269\nsamples = 25\nvalue = [0, 0, 4, 0, 0, 21, 0]"] ;
97 -> 99 ;
100 [label="X[5] <= 801.5\ngini = 0.219\nsamples = 24\nvalue = [0, 0, 3, 0, 0, 21, 0]"] ;
99 -> 100 ;
101 [label="X[2] <= 37.5\ngini = 0.159\nsamples = 23\nvalue = [0, 0, 2, 0, 0, 21, 0]"] ;
100 -> 101 ;
102 [label="X[5] <= 567.0\ngini = 0.091\nsamples = 21\nvalue = [0, 0, 1, 0, 0, 20, 0]"] ;
101 -> 102 ;
103 [label="gini = 0.0\nsamples = 16\nvalue = [0, 0, 0, 0, 0, 16, 0]"] ;
102 -> 103 ;
104 [label="X[4] <= 87.0\ngini = 0.32\nsamples = 5\nvalue = [0, 0, 1, 0, 0, 4, 0]"] ;
102 -> 104 ;
105 [label="gini = 0.0\nsamples = 4\nvalue = [0, 0, 0, 0, 0, 4, 0]"] ;
104 -> 105 ;
106 [label="gini = 0.0\nsamples = 1\nvalue = [0, 0, 1, 0, 0, 0, 0]"] ;
104 -> 106 ;
107 [label="X[4] <= 111.5\ngini = 0.5\nsamples = 2\nvalue = [0, 0, 1, 0, 0, 1, 0]"] ;
101 -> 107 ;
108 [label="gini = 0.0\nsamples = 1\nvalue = [0, 0, 0, 0, 0, 1, 0]"] ;
107 -> 108 ;
109 [label="gini = 0.0\nsamples = 1\nvalue = [0, 0, 1, 0, 0, 0, 0]"] ;
107 -> 109 ;
110 [label="gini = 0.0\nsamples = 1\nvalue = [0, 0, 1, 0, 0, 0, 0]"] ;
100 -> 110 ;
111 [label="gini = 0.0\nsamples = 1\nvalue = [0, 0, 1, 0, 0, 0, 0]"] ;
99 -> 111 ;
112 [label="X[18] <= 0.5\ngini = 0.673\nsamples = 37\nvalue = [0, 3, 17, 7, 0, 10, 0]"] ;
96 -> 112 ;
113 [label="X[5] <= 338.5\ngini = 0.648\nsamples = 33\nvalue = [0, 3, 17, 7, 0, 6, 0]"] ;
112 -> 113 ;
114 [label="X[3] <= 66.0\ngini = 0.612\nsamples = 7\nvalue = [0, 3, 1, 0, 0, 3, 0]"] ;
113 -> 114 ;
115 [label="gini = 0.0\nsamples = 2\nvalue = [0, 0, 0, 0, 0, 2, 0]"] ;
114 -> 115 ;
116 [label="X[8] <= 162.0\ngini = 0.56\nsamples = 5\nvalue = [0, 3, 1, 0, 0, 1, 0]"] ;
114 -> 116 ;
117 [label="gini = 0.0\nsamples = 3\nvalue = [0, 3, 0, 0, 0, 0, 0]"] ;
116 -> 117 ;
118 [label="X[3] <= 157.5\ngini = 0.5\nsamples = 2\nvalue = [0, 0, 1, 0, 0, 1, 0]"] ;
116 -> 118 ;
119 [label="gini = 0.0\nsamples = 1\nvalue = [0, 0, 0, 0, 0, 1, 0]"] ;
118 -> 119 ;
120 [label="gini = 0.0\nsamples = 1\nvalue = [0, 0, 1, 0, 0, 0, 0]"] ;
118 -> 120 ;
121 [label="X[2] <= 15.5\ngini = 0.536\nsamples = 26\nvalue = [0, 0, 16, 7, 0, 3, 0]"] ;
113 -> 121 ;
122 [label="X[5] <= 810.5\ngini = 0.444\nsamples = 9\nvalue = [0, 0, 3, 6, 0, 0, 0]"] ;
121 -> 122 ;
123 [label="gini = 0.0\nsamples = 3\nvalue = [0, 0, 3, 0, 0, 0, 0]"] ;
122 -> 123 ;
124 [label="gini = 0.0\nsamples = 6\nvalue = [0, 0, 0, 6, 0, 0, 0]"] ;
122 -> 124 ;
125 [label="X[0] <= 2203.0\ngini = 0.381\nsamples = 17\nvalue = [0, 0, 13, 1, 0, 3, 0]"] ;
121 -> 125 ;
126 [label="X[9] <= 403.5\ngini = 0.611\nsamples = 6\nvalue = [0, 0, 2, 1, 0, 3, 0]"] ;
125 -> 126 ;
127 [label="gini = 0.0\nsamples = 3\nvalue = [0, 0, 0, 0, 0, 3, 0]"] ;
126 -> 127 ;
128 [label="X[4] <= 27.0\ngini = 0.444\nsamples = 3\nvalue = [0, 0, 2, 1, 0, 0, 0]"] ;
126 -> 128 ;
129 [label="gini = 0.0\nsamples = 1\nvalue = [0, 0, 0, 1, 0, 0, 0]"] ;
128 -> 129 ;
130 [label="gini = 0.0\nsamples = 2\nvalue = [0, 0, 2, 0, 0, 0, 0]"] ;
128 -> 130 ;
131 [label="gini = 0.0\nsamples = 11\nvalue = [0, 0, 11, 0, 0, 0, 0]"] ;
125 -> 131 ;
132 [label="gini = 0.0\nsamples = 4\nvalue = [0, 0, 0, 0, 0, 4, 0]"] ;
112 -> 132 ;
133 [label="X[7] <= 250.5\ngini = 0.283\nsamples = 37\nvalue = [0, 0, 31, 4, 0, 2, 0]"] ;
95 -> 133 ;
134 [label="X[9] <= 157.5\ngini = 0.164\nsamples = 34\nvalue = [0, 0, 31, 1, 0, 2, 0]"] ;
133 -> 134 ;
135 [label="X[6] <= 187.5\ngini = 0.444\nsamples = 3\nvalue = [0, 0, 1, 0, 0, 2, 0]"] ;
134 -> 135 ;
136 [label="gini = 0.0\nsamples = 2\nvalue = [0, 0, 0, 0, 0, 2, 0]"] ;
135 -> 136 ;
137 [label="gini = 0.0\nsamples = 1\nvalue = [0, 0, 1, 0, 0, 0, 0]"] ;
135 -> 137 ;
138 [label="X[8] <= 208.5\ngini = 0.062\nsamples = 31\nvalue = [0, 0, 30, 1, 0, 0, 0]"] ;
134 -> 138 ;
139 [label="gini = 0.0\nsamples = 30\nvalue = [0, 0, 30, 0, 0, 0, 0]"] ;
138 -> 139 ;
140 [label="gini = 0.0\nsamples = 1\nvalue = [0, 0, 0, 1, 0, 0, 0]"] ;
138 -> 140 ;
141 [label="gini = 0.0\nsamples = 3\nvalue = [0, 0, 0, 3, 0, 0, 0]"] ;
133 -> 141 ;
142 [label="gini = 0.0\nsamples = 12\nvalue = [0, 0, 0, 12, 0, 0, 0]"] ;
40 -> 142 ;
143 [label="X[3] <= 186.0\ngini = 0.355\nsamples = 65\nvalue = [0, 0, 15, 0, 0, 50, 0]"] ;
39 -> 143 ;
144 [label="X[0] <= 2186.5\ngini = 0.238\nsamples = 58\nvalue = [0, 0, 8, 0, 0, 50, 0]"] ;
143 -> 144 ;
145 [label="gini = 0.0\nsamples = 3\nvalue = [0, 0, 3, 0, 0, 0, 0]"] ;
144 -> 145 ;
146 [label="X[1] <= 109.5\ngini = 0.165\nsamples = 55\nvalue = [0, 0, 5, 0, 0, 50, 0]"] ;
144 -> 146 ;
147 [label="X[2] <= 26.5\ngini = 0.444\nsamples = 3\nvalue = [0, 0, 2, 0, 0, 1, 0]"] ;
146 -> 147 ;
148 [label="gini = 0.0\nsamples = 2\nvalue = [0, 0, 2, 0, 0, 0, 0]"] ;
147 -> 148 ;
149 [label="gini = 0.0\nsamples = 1\nvalue = [0, 0, 0, 0, 0, 1, 0]"] ;
147 -> 149 ;
150 [label="X[3] <= 114.0\ngini = 0.109\nsamples = 52\nvalue = [0, 0, 3, 0, 0, 49, 0]"] ;
146 -> 150 ;
151 [label="gini = 0.0\nsamples = 37\nvalue = [0, 0, 0, 0, 0, 37, 0]"] ;
150 -> 151 ;
152 [label="X[6] <= 168.5\ngini = 0.32\nsamples = 15\nvalue = [0, 0, 3, 0, 0, 12, 0]"] ;
150 -> 152 ;
153 [label="X[2] <= 24.5\ngini = 0.48\nsamples = 5\nvalue = [0, 0, 3, 0, 0, 2, 0]"] ;
152 -> 153 ;
154 [label="gini = 0.0\nsamples = 3\nvalue = [0, 0, 3, 0, 0, 0, 0]"] ;
153 -> 154 ;
155 [label="gini = 0.0\nsamples = 2\nvalue = [0, 0, 0, 0, 0, 2, 0]"] ;
153 -> 155 ;
156 [label="gini = 0.0\nsamples = 10\nvalue = [0, 0, 0, 0, 0, 10, 0]"] ;
152 -> 156 ;
157 [label="gini = 0.0\nsamples = 7\nvalue = [0, 0, 7, 0, 0, 0, 0]"] ;
143 -> 157 ;
158 [label="X[9] <= 1089.5\ngini = 0.548\nsamples = 669\nvalue = [0, 1, 279, 38, 0, 351, 0]"] ;
38 -> 158 ;
159 [label="X[8] <= 218.5\ngini = 0.524\nsamples = 537\nvalue = [0, 1, 184, 32, 0, 320, 0]"] ;
158 -> 159 ;
160 [label="X[3] <= 406.0\ngini = 0.487\nsamples = 448\nvalue = [0, 1, 131, 24, 0, 292, 0]"] ;
159 -> 160 ;
161 [label="X[5] <= 1167.5\ngini = 0.455\nsamples = 427\nvalue = [0, 1, 120, 15, 0, 291, 0]"] ;
160 -> 161 ;
162 [label="X[9] <= 802.5\ngini = 0.38\nsamples = 303\nvalue = [0, 1, 67, 6, 0, 229, 0]"] ;
161 -> 162 ;
163 [label="X[7] <= 236.0\ngini = 0.499\nsamples = 152\nvalue = [0, 1, 52, 5, 0, 94, 0]"] ;
162 -> 163 ;
164 [label="X[3] <= 255.5\ngini = 0.447\nsamples = 139\nvalue = [0, 1, 45, 0, 0, 93, 0]"] ;
163 -> 164 ;
165 [label="X[1] <= 5.5\ngini = 0.386\nsamples = 113\nvalue = [0, 1, 28, 0, 0, 84, 0]"] ;
164 -> 165 ;
166 [label="X[5] <= 309.5\ngini = 0.32\nsamples = 5\nvalue = [0, 0, 4, 0, 0, 1, 0]"] ;
165 -> 166 ;
167 [label="gini = 0.0\nsamples = 1\nvalue = [0, 0, 0, 0, 0, 1, 0]"] ;
166 -> 167 ;
168 [label="gini = 0.0\nsamples = 4\nvalue = [0, 0, 4, 0, 0, 0, 0]"] ;
166 -> 168 ;
169 [label="X[5] <= 172.5\ngini = 0.36\nsamples = 108\nvalue = [0, 1, 24, 0, 0, 83, 0]"] ;
165 -> 169 ;
170 [label="X[5] <= 122.0\ngini = 0.562\nsamples = 11\nvalue = [0, 1, 6, 0, 0, 4, 0]"] ;
169 -> 170 ;
171 [label="X[4] <= 14.5\ngini = 0.32\nsamples = 5\nvalue = [0, 1, 0, 0, 0, 4, 0]"] ;
170 -> 171 ;
172 [label="gini = 0.0\nsamples = 1\nvalue = [0, 1, 0, 0, 0, 0, 0]"] ;
171 -> 172 ;
173 [label="gini = 0.0\nsamples = 4\nvalue = [0, 0, 0, 0, 0, 4, 0]"] ;
171 -> 173 ;
174 [label="gini = 0.0\nsamples = 6\nvalue = [0, 0, 6, 0, 0, 0, 0]"] ;
170 -> 174 ;
175 [label="X[1] <= 24.0\ngini = 0.302\nsamples = 97\nvalue = [0, 0, 18, 0, 0, 79, 0]"] ;
169 -> 175 ;
176 [label="gini = 0.0\nsamples = 21\nvalue = [0, 0, 0, 0, 0, 21, 0]"] ;
175 -> 176 ;
177 [label="X[19] <= 0.5\ngini = 0.361\nsamples = 76\nvalue = [0, 0, 18, 0, 0, 58, 0]"] ;
175 -> 177 ;
178 [label="X[0] <= 2071.0\ngini = 0.33\nsamples = 72\nvalue = [0, 0, 15, 0, 0, 57, 0]"] ;
177 -> 178 ;
179 [label="gini = 0.0\nsamples = 14\nvalue = [0, 0, 0, 0, 0, 14, 0]"] ;
178 -> 179 ;
180 [label="X[1] <= 357.5\ngini = 0.383\nsamples = 58\nvalue = [0, 0, 15, 0, 0, 43, 0]"] ;
178 -> 180 ;
181 [label="X[5] <= 418.0\ngini = 0.357\nsamples = 56\nvalue = [0, 0, 13, 0, 0, 43, 0]"] ;
180 -> 181 ;
182 [label="X[0] <= 2116.0\ngini = 0.444\nsamples = 6\nvalue = [0, 0, 4, 0, 0, 2, 0]"] ;
181 -> 182 ;
183 [label="gini = 0.0\nsamples = 4\nvalue = [0, 0, 4, 0, 0, 0, 0]"] ;
182 -> 183 ;
184 [label="gini = 0.0\nsamples = 2\nvalue = [0, 0, 0, 0, 0, 2, 0]"] ;
182 -> 184 ;
185 [label="X[2] <= 17.5\ngini = 0.295\nsamples = 50\nvalue = [0, 0, 9, 0, 0, 41, 0]"] ;
181 -> 185 ;
186 [label="X[7] <= 224.0\ngini = 0.494\nsamples = 9\nvalue = [0, 0, 4, 0, 0, 5, 0]"] ;
185 -> 186 ;
187 [label="X[5] <= 1046.0\ngini = 0.32\nsamples = 5\nvalue = [0, 0, 4, 0, 0, 1, 0]"] ;
186 -> 187 ;
188 [label="gini = 0.0\nsamples = 4\nvalue = [0, 0, 4, 0, 0, 0, 0]"] ;
187 -> 188 ;
189 [label="gini = 0.0\nsamples = 1\nvalue = [0, 0, 0, 0, 0, 1, 0]"] ;
187 -> 189 ;
190 [label="gini = 0.0\nsamples = 4\nvalue = [0, 0, 0, 0, 0, 4, 0]"] ;
186 -> 190 ;
191 [label="X[0] <= 2264.5\ngini = 0.214\nsamples = 41\nvalue = [0, 0, 5, 0, 0, 36, 0]"] ;
185 -> 191 ;
192 [label="X[0] <= 2219.0\ngini = 0.33\nsamples = 24\nvalue = [0, 0, 5, 0, 0, 19, 0]"] ;
191 -> 192 ;
193 [label="X[3] <= 72.5\ngini = 0.236\nsamples = 22\nvalue = [0, 0, 3, 0, 0, 19, 0]"] ;
192 -> 193 ;
194 [label="X[4] <= 15.0\ngini = 0.444\nsamples = 3\nvalue = [0, 0, 2, 0, 0, 1, 0]"] ;
193 -> 194 ;
195 [label="gini = 0.0\nsamples = 1\nvalue = [0, 0, 0, 0, 0, 1, 0]"] ;
194 -> 195 ;
196 [label="gini = 0.0\nsamples = 2\nvalue = [0, 0, 2, 0, 0, 0, 0]"] ;
194 -> 196 ;
197 [label="X[9] <= 619.0\ngini = 0.1\nsamples = 19\nvalue = [0, 0, 1, 0, 0, 18, 0]"] ;
193 -> 197 ;
198 [label="X[8] <= 118.5\ngini = 0.5\nsamples = 2\nvalue = [0, 0, 1, 0, 0, 1, 0]"] ;
197 -> 198 ;
199 [label="gini = 0.0\nsamples = 1\nvalue = [0, 0, 0, 0, 0, 1, 0]"] ;
198 -> 199 ;
200 [label="gini = 0.0\nsamples = 1\nvalue = [0, 0, 1, 0, 0, 0, 0]"] ;
198 -> 200 ;
201 [label="gini = 0.0\nsamples = 17\nvalue = [0, 0, 0, 0, 0, 17, 0]"] ;
197 -> 201 ;
202 [label="gini = 0.0\nsamples = 2\nvalue = [0, 0, 2, 0, 0, 0, 0]"] ;
192 -> 202 ;
203 [label="gini = 0.0\nsamples = 17\nvalue = [0, 0, 0, 0, 0, 17, 0]"] ;
191 -> 203 ;
204 [label="gini = 0.0\nsamples = 2\nvalue = [0, 0, 2, 0, 0, 0, 0]"] ;
180 -> 204 ;
205 [label="X[1] <= 337.0\ngini = 0.375\nsamples = 4\nvalue = [0, 0, 3, 0, 0, 1, 0]"] ;
177 -> 205 ;
206 [label="gini = 0.0\nsamples = 3\nvalue = [0, 0, 3, 0, 0, 0, 0]"] ;
205 -> 206 ;
207 [label="gini = 0.0\nsamples = 1\nvalue = [0, 0, 0, 0, 0, 1, 0]"] ;
205 -> 207 ;
208 [label="X[6] <= 182.0\ngini = 0.453\nsamples = 26\nvalue = [0, 0, 17, 0, 0, 9, 0]"] ;
164 -> 208 ;
209 [label="X[4] <= -58.0\ngini = 0.124\nsamples = 15\nvalue = [0, 0, 14, 0, 0, 1, 0]"] ;
208 -> 209 ;
210 [label="gini = 0.0\nsamples = 1\nvalue = [0, 0, 0, 0, 0, 1, 0]"] ;
209 -> 210 ;
211 [label="gini = 0.0\nsamples = 14\nvalue = [0, 0, 14, 0, 0, 0, 0]"] ;
209 -> 211 ;
212 [label="X[2] <= 14.5\ngini = 0.397\nsamples = 11\nvalue = [0, 0, 3, 0, 0, 8, 0]"] ;
208 -> 212 ;
213 [label="gini = 0.0\nsamples = 5\nvalue = [0, 0, 0, 0, 0, 5, 0]"] ;
212 -> 213 ;
214 [label="X[3] <= 290.0\ngini = 0.5\nsamples = 6\nvalue = [0, 0, 3, 0, 0, 3, 0]"] ;
212 -> 214 ;
215 [label="gini = 0.0\nsamples = 3\nvalue = [0, 0, 0, 0, 0, 3, 0]"] ;
214 -> 215 ;
216 [label="gini = 0.0\nsamples = 3\nvalue = [0, 0, 3, 0, 0, 0, 0]"] ;
214 -> 216 ;
217 [label="X[5] <= 520.0\ngini = 0.556\nsamples = 13\nvalue = [0, 0, 7, 5, 0, 1, 0]"] ;
163 -> 217 ;
218 [label="X[9] <= 773.5\ngini = 0.219\nsamples = 8\nvalue = [0, 0, 7, 0, 0, 1, 0]"] ;
217 -> 218 ;
219 [label="gini = 0.0\nsamples = 7\nvalue = [0, 0, 7, 0, 0, 0, 0]"] ;
218 -> 219 ;
220 [label="gini = 0.0\nsamples = 1\nvalue = [0, 0, 0, 0, 0, 1, 0]"] ;
218 -> 220 ;
221 [label="gini = 0.0\nsamples = 5\nvalue = [0, 0, 0, 5, 0, 0, 0]"] ;
217 -> 221 ;
222 [label="X[19] <= 0.5\ngini = 0.191\nsamples = 151\nvalue = [0, 0, 15, 1, 0, 135, 0]"] ;
162 -> 222 ;
223 [label="X[5] <= 406.0\ngini = 0.162\nsamples = 147\nvalue = [0, 0, 12, 1, 0, 134, 0]"] ;
222 -> 223 ;
224 [label="X[0] <= 2115.5\ngini = 0.447\nsamples = 32\nvalue = [0, 0, 9, 1, 0, 22, 0]"] ;
223 -> 224 ;
225 [label="X[2] <= 18.5\ngini = 0.087\nsamples = 22\nvalue = [0, 0, 1, 0, 0, 21, 0]"] ;
224 -> 225 ;
226 [label="gini = 0.0\nsamples = 1\nvalue = [0, 0, 1, 0, 0, 0, 0]"] ;
225 -> 226 ;
227 [label="gini = 0.0\nsamples = 21\nvalue = [0, 0, 0, 0, 0, 21, 0]"] ;
225 -> 227 ;
228 [label="X[8] <= 143.5\ngini = 0.34\nsamples = 10\nvalue = [0, 0, 8, 1, 0, 1, 0]"] ;
224 -> 228 ;
229 [label="gini = 0.0\nsamples = 1\nvalue = [0, 0, 0, 0, 0, 1, 0]"] ;
228 -> 229 ;
230 [label="X[4] <= 1.5\ngini = 0.198\nsamples = 9\nvalue = [0, 0, 8, 1, 0, 0, 0]"] ;
228 -> 230 ;
231 [label="gini = 0.0\nsamples = 1\nvalue = [0, 0, 0, 1, 0, 0, 0]"] ;
230 -> 231 ;
232 [label="gini = 0.0\nsamples = 8\nvalue = [0, 0, 8, 0, 0, 0, 0]"] ;
230 -> 232 ;
233 [label="X[1] <= 358.5\ngini = 0.051\nsamples = 115\nvalue = [0, 0, 3, 0, 0, 112, 0]"] ;
223 -> 233 ;
234 [label="X[5] <= 1152.0\ngini = 0.034\nsamples = 114\nvalue = [0, 0, 2, 0, 0, 112, 0]"] ;
233 -> 234 ;
235 [label="X[1] <= 353.5\ngini = 0.018\nsamples = 112\nvalue = [0, 0, 1, 0, 0, 111, 0]"] ;
234 -> 235 ;
236 [label="gini = 0.0\nsamples = 109\nvalue = [0, 0, 0, 0, 0, 109, 0]"] ;
235 -> 236 ;
237 [label="X[4] <= 136.0\ngini = 0.444\nsamples = 3\nvalue = [0, 0, 1, 0, 0, 2, 0]"] ;
235 -> 237 ;
238 [label="gini = 0.0\nsamples = 2\nvalue = [0, 0, 0, 0, 0, 2, 0]"] ;
237 -> 238 ;
239 [label="gini = 0.0\nsamples = 1\nvalue = [0, 0, 1, 0, 0, 0, 0]"] ;
237 -> 239 ;
240 [label="X[3] <= 75.0\ngini = 0.5\nsamples = 2\nvalue = [0, 0, 1, 0, 0, 1, 0]"] ;
234 -> 240 ;
241 [label="gini = 0.0\nsamples = 1\nvalue = [0, 0, 0, 0, 0, 1, 0]"] ;
240 -> 241 ;
242 [label="gini = 0.0\nsamples = 1\nvalue = [0, 0, 1, 0, 0, 0, 0]"] ;
240 -> 242 ;
243 [label="gini = 0.0\nsamples = 1\nvalue = [0, 0, 1, 0, 0, 0, 0]"] ;
233 -> 243 ;
244 [label="X[0] <= 2335.5\ngini = 0.375\nsamples = 4\nvalue = [0, 0, 3, 0, 0, 1, 0]"] ;
222 -> 244 ;
245 [label="gini = 0.0\nsamples = 3\nvalue = [0, 0, 3, 0, 0, 0, 0]"] ;
244 -> 245 ;
246 [label="gini = 0.0\nsamples = 1\nvalue = [0, 0, 0, 0, 0, 1, 0]"] ;
244 -> 246 ;
247 [label="X[2] <= 24.5\ngini = 0.562\nsamples = 124\nvalue = [0, 0, 53, 9, 0, 62, 0]"] ;
161 -> 247 ;
248 [label="X[9] <= 875.0\ngini = 0.449\nsamples = 75\nvalue = [0, 0, 16, 6, 0, 53, 0]"] ;
247 -> 248 ;
249 [label="X[3] <= 300.5\ngini = 0.271\nsamples = 52\nvalue = [0, 0, 3, 5, 0, 44, 0]"] ;
248 -> 249 ;
250 [label="X[5] <= 1185.0\ngini = 0.084\nsamples = 46\nvalue = [0, 0, 1, 1, 0, 44, 0]"] ;
249 -> 250 ;
251 [label="gini = 0.0\nsamples = 1\nvalue = [0, 0, 1, 0, 0, 0, 0]"] ;
250 -> 251 ;
252 [label="X[5] <= 1205.0\ngini = 0.043\nsamples = 45\nvalue = [0, 0, 0, 1, 0, 44, 0]"] ;
250 -> 252 ;
253 [label="X[0] <= 2230.5\ngini = 0.5\nsamples = 2\nvalue = [0, 0, 0, 1, 0, 1, 0]"] ;
252 -> 253 ;
254 [label="gini = 0.0\nsamples = 1\nvalue = [0, 0, 0, 1, 0, 0, 0]"] ;
253 -> 254 ;
255 [label="gini = 0.0\nsamples = 1\nvalue = [0, 0, 0, 0, 0, 1, 0]"] ;
253 -> 255 ;
256 [label="gini = 0.0\nsamples = 43\nvalue = [0, 0, 0, 0, 0, 43, 0]"] ;
252 -> 256 ;
257 [label="X[7] <= 226.0\ngini = 0.444\nsamples = 6\nvalue = [0, 0, 2, 4, 0, 0, 0]"] ;
249 -> 257 ;
258 [label="gini = 0.0\nsamples = 2\nvalue = [0, 0, 2, 0, 0, 0, 0]"] ;
257 -> 258 ;
259 [label="gini = 0.0\nsamples = 4\nvalue = [0, 0, 0, 4, 0, 0, 0]"] ;
257 -> 259 ;
260 [label="X[8] <= 188.0\ngini = 0.526\nsamples = 23\nvalue = [0, 0, 13, 1, 0, 9, 0]"] ;
248 -> 260 ;
261 [label="X[5] <= 1310.5\ngini = 0.165\nsamples = 11\nvalue = [0, 0, 10, 1, 0, 0, 0]"] ;
260 -> 261 ;
262 [label="X[0] <= 2198.0\ngini = 0.5\nsamples = 2\nvalue = [0, 0, 1, 1, 0, 0, 0]"] ;
261 -> 262 ;
263 [label="gini = 0.0\nsamples = 1\nvalue = [0, 0, 0, 1, 0, 0, 0]"] ;
262 -> 263 ;
264 [label="gini = 0.0\nsamples = 1\nvalue = [0, 0, 1, 0, 0, 0, 0]"] ;
262 -> 264 ;
265 [label="gini = 0.0\nsamples = 9\nvalue = [0, 0, 9, 0, 0, 0, 0]"] ;
261 -> 265 ;
266 [label="X[4] <= 137.5\ngini = 0.375\nsamples = 12\nvalue = [0, 0, 3, 0, 0, 9, 0]"] ;
260 -> 266 ;
267 [label="X[8] <= 217.5\ngini = 0.18\nsamples = 10\nvalue = [0, 0, 1, 0, 0, 9, 0]"] ;
266 -> 267 ;
268 [label="gini = 0.0\nsamples = 9\nvalue = [0, 0, 0, 0, 0, 9, 0]"] ;
267 -> 268 ;
269 [label="gini = 0.0\nsamples = 1\nvalue = [0, 0, 1, 0, 0, 0, 0]"] ;
267 -> 269 ;
270 [label="gini = 0.0\nsamples = 2\nvalue = [0, 0, 2, 0, 0, 0, 0]"] ;
266 -> 270 ;
271 [label="X[23] <= 0.5\ngini = 0.392\nsamples = 49\nvalue = [0, 0, 37, 3, 0, 9, 0]"] ;
247 -> 271 ;
272 [label="X[1] <= 219.5\ngini = 0.375\nsamples = 4\nvalue = [0, 0, 0, 1, 0, 3, 0]"] ;
271 -> 272 ;
273 [label="gini = 0.0\nsamples = 1\nvalue = [0, 0, 0, 1, 0, 0, 0]"] ;
272 -> 273 ;
274 [label="gini = 0.0\nsamples = 3\nvalue = [0, 0, 0, 0, 0, 3, 0]"] ;
272 -> 274 ;
275 [label="X[5] <= 1632.0\ngini = 0.304\nsamples = 45\nvalue = [0, 0, 37, 2, 0, 6, 0]"] ;
271 -> 275 ;
276 [label="X[9] <= 854.0\ngini = 0.24\nsamples = 43\nvalue = [0, 0, 37, 0, 0, 6, 0]"] ;
275 -> 276 ;
277 [label="X[8] <= 196.5\ngini = 0.397\nsamples = 22\nvalue = [0, 0, 16, 0, 0, 6, 0]"] ;
276 -> 277 ;
278 [label="X[1] <= 346.5\ngini = 0.133\nsamples = 14\nvalue = [0, 0, 13, 0, 0, 1, 0]"] ;
277 -> 278 ;
279 [label="gini = 0.0\nsamples = 12\nvalue = [0, 0, 12, 0, 0, 0, 0]"] ;
278 -> 279 ;
280 [label="X[8] <= 150.0\ngini = 0.5\nsamples = 2\nvalue = [0, 0, 1, 0, 0, 1, 0]"] ;
278 -> 280 ;
281 [label="gini = 0.0\nsamples = 1\nvalue = [0, 0, 1, 0, 0, 0, 0]"] ;
280 -> 281 ;
282 [label="gini = 0.0\nsamples = 1\nvalue = [0, 0, 0, 0, 0, 1, 0]"] ;
280 -> 282 ;
283 [label="X[9] <= 680.5\ngini = 0.469\nsamples = 8\nvalue = [0, 0, 3, 0, 0, 5, 0]"] ;
277 -> 283 ;
284 [label="X[7] <= 193.0\ngini = 0.375\nsamples = 4\nvalue = [0, 0, 3, 0, 0, 1, 0]"] ;
283 -> 284 ;
285 [label="gini = 0.0\nsamples = 1\nvalue = [0, 0, 0, 0, 0, 1, 0]"] ;
284 -> 285 ;
286 [label="gini = 0.0\nsamples = 3\nvalue = [0, 0, 3, 0, 0, 0, 0]"] ;
284 -> 286 ;
287 [label="gini = 0.0\nsamples = 4\nvalue = [0, 0, 0, 0, 0, 4, 0]"] ;
283 -> 287 ;
288 [label="gini = 0.0\nsamples = 21\nvalue = [0, 0, 21, 0, 0, 0, 0]"] ;
276 -> 288 ;
289 [label="gini = 0.0\nsamples = 2\nvalue = [0, 0, 0, 2, 0, 0, 0]"] ;
275 -> 289 ;
290 [label="X[7] <= 248.0\ngini = 0.54\nsamples = 21\nvalue = [0, 0, 11, 9, 0, 1, 0]"] ;
160 -> 290 ;
291 [label="X[9] <= 1019.5\ngini = 0.18\nsamples = 10\nvalue = [0, 0, 9, 0, 0, 1, 0]"] ;
290 -> 291 ;
292 [label="gini = 0.0\nsamples = 9\nvalue = [0, 0, 9, 0, 0, 0, 0]"] ;
291 -> 292 ;
293 [label="gini = 0.0\nsamples = 1\nvalue = [0, 0, 0, 0, 0, 1, 0]"] ;
291 -> 293 ;
294 [label="X[5] <= 934.5\ngini = 0.298\nsamples = 11\nvalue = [0, 0, 2, 9, 0, 0, 0]"] ;
290 -> 294 ;
295 [label="gini = 0.0\nsamples = 2\nvalue = [0, 0, 2, 0, 0, 0, 0]"] ;
294 -> 295 ;
296 [label="gini = 0.0\nsamples = 9\nvalue = [0, 0, 0, 9, 0, 0, 0]"] ;
294 -> 296 ;
297 [label="X[9] <= 701.0\ngini = 0.538\nsamples = 89\nvalue = [0, 0, 53, 8, 0, 28, 0]"] ;
159 -> 297 ;
298 [label="X[5] <= 1452.0\ngini = 0.174\nsamples = 32\nvalue = [0, 0, 29, 1, 0, 2, 0]"] ;
297 -> 298 ;
299 [label="X[27] <= 0.5\ngini = 0.064\nsamples = 30\nvalue = [0, 0, 29, 1, 0, 0, 0]"] ;
298 -> 299 ;
300 [label="gini = 0.0\nsamples = 29\nvalue = [0, 0, 29, 0, 0, 0, 0]"] ;
299 -> 300 ;
301 [label="gini = 0.0\nsamples = 1\nvalue = [0, 0, 0, 1, 0, 0, 0]"] ;
299 -> 301 ;
302 [label="gini = 0.0\nsamples = 2\nvalue = [0, 0, 0, 0, 0, 2, 0]"] ;
298 -> 302 ;
303 [label="X[19] <= 0.5\ngini = 0.6\nsamples = 57\nvalue = [0, 0, 24, 7, 0, 26, 0]"] ;
297 -> 303 ;
304 [label="X[2] <= 32.5\ngini = 0.519\nsamples = 50\nvalue = [0, 0, 24, 1, 0, 25, 0]"] ;
303 -> 304 ;
305 [label="X[3] <= 386.0\ngini = 0.469\nsamples = 35\nvalue = [0, 0, 11, 1, 0, 23, 0]"] ;
304 -> 305 ;
306 [label="X[8] <= 220.0\ngini = 0.349\nsamples = 28\nvalue = [0, 0, 5, 1, 0, 22, 0]"] ;
305 -> 306 ;
307 [label="X[2] <= 26.0\ngini = 0.375\nsamples = 4\nvalue = [0, 0, 3, 0, 0, 1, 0]"] ;
306 -> 307 ;
308 [label="gini = 0.0\nsamples = 3\nvalue = [0, 0, 3, 0, 0, 0, 0]"] ;
307 -> 308 ;
309 [label="gini = 0.0\nsamples = 1\nvalue = [0, 0, 0, 0, 0, 1, 0]"] ;
307 -> 309 ;
310 [label="X[1] <= 298.5\ngini = 0.226\nsamples = 24\nvalue = [0, 0, 2, 1, 0, 21, 0]"] ;
306 -> 310 ;
311 [label="X[3] <= 377.5\ngini = 0.163\nsamples = 23\nvalue = [0, 0, 1, 1, 0, 21, 0]"] ;
310 -> 311 ;
312 [label="X[5] <= 1472.0\ngini = 0.091\nsamples = 21\nvalue = [0, 0, 1, 0, 0, 20, 0]"] ;
311 -> 312 ;
313 [label="gini = 0.0\nsamples = 18\nvalue = [0, 0, 0, 0, 0, 18, 0]"] ;
312 -> 313 ;
314 [label="X[23] <= 0.5\ngini = 0.444\nsamples = 3\nvalue = [0, 0, 1, 0, 0, 2, 0]"] ;
312 -> 314 ;
315 [label="gini = 0.0\nsamples = 2\nvalue = [0, 0, 0, 0, 0, 2, 0]"] ;
314 -> 315 ;
316 [label="gini = 0.0\nsamples = 1\nvalue = [0, 0, 1, 0, 0, 0, 0]"] ;
314 -> 316 ;
317 [label="X[3] <= 380.5\ngini = 0.5\nsamples = 2\nvalue = [0, 0, 0, 1, 0, 1, 0]"] ;
311 -> 317 ;
318 [label="gini = 0.0\nsamples = 1\nvalue = [0, 0, 0, 1, 0, 0, 0]"] ;
317 -> 318 ;
319 [label="gini = 0.0\nsamples = 1\nvalue = [0, 0, 0, 0, 0, 1, 0]"] ;
317 -> 319 ;
320 [label="gini = 0.0\nsamples = 1\nvalue = [0, 0, 1, 0, 0, 0, 0]"] ;
310 -> 320 ;
321 [label="X[1] <= 294.5\ngini = 0.245\nsamples = 7\nvalue = [0, 0, 6, 0, 0, 1, 0]"] ;
305 -> 321 ;
322 [label="gini = 0.0\nsamples = 6\nvalue = [0, 0, 6, 0, 0, 0, 0]"] ;
321 -> 322 ;
323 [label="gini = 0.0\nsamples = 1\nvalue = [0, 0, 0, 0, 0, 1, 0]"] ;
321 -> 323 ;
324 [label="X[4] <= 123.0\ngini = 0.231\nsamples = 15\nvalue = [0, 0, 13, 0, 0, 2, 0]"] ;
304 -> 324 ;
325 [label="gini = 0.0\nsamples = 12\nvalue = [0, 0, 12, 0, 0, 0, 0]"] ;
324 -> 325 ;
326 [label="X[3] <= 297.0\ngini = 0.444\nsamples = 3\nvalue = [0, 0, 1, 0, 0, 2, 0]"] ;
324 -> 326 ;
327 [label="gini = 0.0\nsamples = 2\nvalue = [0, 0, 0, 0, 0, 2, 0]"] ;
326 -> 327 ;
328 [label="gini = 0.0\nsamples = 1\nvalue = [0, 0, 1, 0, 0, 0, 0]"] ;
326 -> 328 ;
329 [label="X[9] <= 718.5\ngini = 0.245\nsamples = 7\nvalue = [0, 0, 0, 6, 0, 1, 0]"] ;
303 -> 329 ;
330 [label="gini = 0.0\nsamples = 1\nvalue = [0, 0, 0, 0, 0, 1, 0]"] ;
329 -> 330 ;
331 [label="gini = 0.0\nsamples = 6\nvalue = [0, 0, 0, 6, 0, 0, 0]"] ;
329 -> 331 ;
332 [label="X[2] <= 25.5\ngini = 0.425\nsamples = 132\nvalue = [0, 0, 95, 6, 0, 31, 0]"] ;
158 -> 332 ;
333 [label="X[3] <= 366.5\ngini = 0.568\nsamples = 63\nvalue = [0, 0, 31, 5, 0, 27, 0]"] ;
332 -> 333 ;
334 [label="X[0] <= 2260.0\ngini = 0.562\nsamples = 48\nvalue = [0, 0, 16, 5, 0, 27, 0]"] ;
333 -> 334 ;
335 [label="X[4] <= 12.0\ngini = 0.415\nsamples = 17\nvalue = [0, 0, 12, 5, 0, 0, 0]"] ;
334 -> 335 ;
336 [label="gini = 0.0\nsamples = 5\nvalue = [0, 0, 0, 5, 0, 0, 0]"] ;
335 -> 336 ;
337 [label="gini = 0.0\nsamples = 12\nvalue = [0, 0, 12, 0, 0, 0, 0]"] ;
335 -> 337 ;
338 [label="X[6] <= 192.0\ngini = 0.225\nsamples = 31\nvalue = [0, 0, 4, 0, 0, 27, 0]"] ;
334 -> 338 ;
339 [label="X[5] <= 564.0\ngini = 0.128\nsamples = 29\nvalue = [0, 0, 2, 0, 0, 27, 0]"] ;
338 -> 339 ;
340 [label="gini = 0.0\nsamples = 1\nvalue = [0, 0, 1, 0, 0, 0, 0]"] ;
339 -> 340 ;
341 [label="X[9] <= 1210.0\ngini = 0.069\nsamples = 28\nvalue = [0, 0, 1, 0, 0, 27, 0]"] ;
339 -> 341 ;
342 [label="X[9] <= 1203.5\ngini = 0.375\nsamples = 4\nvalue = [0, 0, 1, 0, 0, 3, 0]"] ;
341 -> 342 ;
343 [label="gini = 0.0\nsamples = 3\nvalue = [0, 0, 0, 0, 0, 3, 0]"] ;
342 -> 343 ;
344 [label="gini = 0.0\nsamples = 1\nvalue = [0, 0, 1, 0, 0, 0, 0]"] ;
342 -> 344 ;
345 [label="gini = 0.0\nsamples = 24\nvalue = [0, 0, 0, 0, 0, 24, 0]"] ;
341 -> 345 ;
346 [label="gini = 0.0\nsamples = 2\nvalue = [0, 0, 2, 0, 0, 0, 0]"] ;
338 -> 346 ;
347 [label="gini = 0.0\nsamples = 15\nvalue = [0, 0, 15, 0, 0, 0, 0]"] ;
333 -> 347 ;
348 [label="X[3] <= 36.0\ngini = 0.136\nsamples = 69\nvalue = [0, 0, 64, 1, 0, 4, 0]"] ;
332 -> 348 ;
349 [label="X[8] <= 166.5\ngini = 0.5\nsamples = 2\nvalue = [0, 0, 0, 1, 0, 1, 0]"] ;
348 -> 349 ;
350 [label="gini = 0.0\nsamples = 1\nvalue = [0, 0, 0, 0, 0, 1, 0]"] ;
349 -> 350 ;
351 [label="gini = 0.0\nsamples = 1\nvalue = [0, 0, 0, 1, 0, 0, 0]"] ;
349 -> 351 ;
352 [label="X[1] <= 346.0\ngini = 0.086\nsamples = 67\nvalue = [0, 0, 64, 0, 0, 3, 0]"] ;
348 -> 352 ;
353 [label="X[0] <= 2349.0\ngini = 0.032\nsamples = 61\nvalue = [0, 0, 60, 0, 0, 1, 0]"] ;
352 -> 353 ;
354 [label="gini = 0.0\nsamples = 56\nvalue = [0, 0, 56, 0, 0, 0, 0]"] ;
353 -> 354 ;
355 [label="X[3] <= 140.0\ngini = 0.32\nsamples = 5\nvalue = [0, 0, 4, 0, 0, 1, 0]"] ;
353 -> 355 ;
356 [label="gini = 0.0\nsamples = 1\nvalue = [0, 0, 0, 0, 0, 1, 0]"] ;
355 -> 356 ;
357 [label="gini = 0.0\nsamples = 4\nvalue = [0, 0, 4, 0, 0, 0, 0]"] ;
355 -> 357 ;
358 [label="X[4] <= 76.5\ngini = 0.444\nsamples = 6\nvalue = [0, 0, 4, 0, 0, 2, 0]"] ;
352 -> 358 ;
359 [label="gini = 0.0\nsamples = 2\nvalue = [0, 0, 0, 0, 0, 2, 0]"] ;
358 -> 359 ;
360 [label="gini = 0.0\nsamples = 4\nvalue = [0, 0, 4, 0, 0, 0, 0]"] ;
358 -> 360 ;
361 [label="X[5] <= 571.0\ngini = 0.38\nsamples = 62\nvalue = [0, 0, 13, 47, 0, 2, 0]"] ;
37 -> 361 ;
362 [label="gini = 0.0\nsamples = 9\nvalue = [0, 0, 9, 0, 0, 0, 0]"] ;
361 -> 362 ;
363 [label="X[5] <= 1408.0\ngini = 0.206\nsamples = 53\nvalue = [0, 0, 4, 47, 0, 2, 0]"] ;
361 -> 363 ;
364 [label="X[0] <= 2109.5\ngini = 0.145\nsamples = 51\nvalue = [0, 0, 4, 47, 0, 0, 0]"] ;
363 -> 364 ;
365 [label="X[5] <= 1101.5\ngini = 0.36\nsamples = 17\nvalue = [0, 0, 4, 13, 0, 0, 0]"] ;
364 -> 365 ;
366 [label="X[0] <= 2044.5\ngini = 0.142\nsamples = 13\nvalue = [0, 0, 1, 12, 0, 0, 0]"] ;
365 -> 366 ;
367 [label="X[4] <= 4.5\ngini = 0.5\nsamples = 2\nvalue = [0, 0, 1, 1, 0, 0, 0]"] ;
366 -> 367 ;
368 [label="gini = 0.0\nsamples = 1\nvalue = [0, 0, 0, 1, 0, 0, 0]"] ;
367 -> 368 ;
369 [label="gini = 0.0\nsamples = 1\nvalue = [0, 0, 1, 0, 0, 0, 0]"] ;
367 -> 369 ;
370 [label="gini = 0.0\nsamples = 11\nvalue = [0, 0, 0, 11, 0, 0, 0]"] ;
366 -> 370 ;
371 [label="X[4] <= 4.0\ngini = 0.375\nsamples = 4\nvalue = [0, 0, 3, 1, 0, 0, 0]"] ;
365 -> 371 ;
372 [label="gini = 0.0\nsamples = 1\nvalue = [0, 0, 0, 1, 0, 0, 0]"] ;
371 -> 372 ;
373 [label="gini = 0.0\nsamples = 3\nvalue = [0, 0, 3, 0, 0, 0, 0]"] ;
371 -> 373 ;
374 [label="gini = 0.0\nsamples = 34\nvalue = [0, 0, 0, 34, 0, 0, 0]"] ;
364 -> 374 ;
375 [label="gini = 0.0\nsamples = 2\nvalue = [0, 0, 0, 0, 0, 2, 0]"] ;
363 -> 375 ;
376 [label="X[3] <= 15.0\ngini = 0.421\nsamples = 2442\nvalue = [0, 1, 386, 1800, 0, 255, 0]"] ;
2 -> 376 ;
377 [label="X[12] <= 0.5\ngini = 0.102\nsamples = 750\nvalue = [0, 0, 16, 710, 0, 24, 0]"] ;
376 -> 377 ;
378 [label="X[5] <= 92.5\ngini = 0.081\nsamples = 741\nvalue = [0, 0, 16, 710, 0, 15, 0]"] ;
377 -> 378 ;
379 [label="X[1] <= 27.0\ngini = 0.449\nsamples = 7\nvalue = [0, 0, 5, 1, 0, 1, 0]"] ;
378 -> 379 ;
380 [label="X[9] <= 411.5\ngini = 0.5\nsamples = 2\nvalue = [0, 0, 0, 1, 0, 1, 0]"] ;
379 -> 380 ;
381 [label="gini = 0.0\nsamples = 1\nvalue = [0, 0, 0, 1, 0, 0, 0]"] ;
380 -> 381 ;
382 [label="gini = 0.0\nsamples = 1\nvalue = [0, 0, 0, 0, 0, 1, 0]"] ;
380 -> 382 ;
383 [label="gini = 0.0\nsamples = 5\nvalue = [0, 0, 5, 0, 0, 0, 0]"] ;
379 -> 383 ;
384 [label="X[0] <= 2322.0\ngini = 0.066\nsamples = 734\nvalue = [0, 0, 11, 709, 0, 14, 0]"] ;
378 -> 384 ;
385 [label="X[8] <= 54.0\ngini = 0.045\nsamples = 660\nvalue = [0, 0, 6, 645, 0, 9, 0]"] ;
384 -> 385 ;
386 [label="X[0] <= 2234.5\ngini = 0.32\nsamples = 10\nvalue = [0, 0, 0, 8, 0, 2, 0]"] ;
385 -> 386 ;
387 [label="gini = 0.0\nsamples = 7\nvalue = [0, 0, 0, 7, 0, 0, 0]"] ;
386 -> 387 ;
388 [label="X[1] <= 80.5\ngini = 0.444\nsamples = 3\nvalue = [0, 0, 0, 1, 0, 2, 0]"] ;
386 -> 388 ;
389 [label="gini = 0.0\nsamples = 1\nvalue = [0, 0, 0, 1, 0, 0, 0]"] ;
388 -> 389 ;
390 [label="gini = 0.0\nsamples = 2\nvalue = [0, 0, 0, 0, 0, 2, 0]"] ;
388 -> 390 ;
391 [label="X[6] <= 202.5\ngini = 0.039\nsamples = 650\nvalue = [0, 0, 6, 637, 0, 7, 0]"] ;
385 -> 391 ;
392 [label="X[23] <= 0.5\ngini = 0.16\nsamples = 58\nvalue = [0, 0, 1, 53, 0, 4, 0]"] ;
391 -> 392 ;
393 [label="X[0] <= 2283.5\ngini = 0.103\nsamples = 55\nvalue = [0, 0, 0, 52, 0, 3, 0]"] ;
392 -> 393 ;
394 [label="X[5] <= 1571.5\ngini = 0.038\nsamples = 51\nvalue = [0, 0, 0, 50, 0, 1, 0]"] ;
393 -> 394 ;
395 [label="gini = 0.0\nsamples = 47\nvalue = [0, 0, 0, 47, 0, 0, 0]"] ;
394 -> 395 ;
396 [label="X[5] <= 1583.5\ngini = 0.375\nsamples = 4\nvalue = [0, 0, 0, 3, 0, 1, 0]"] ;
394 -> 396 ;
397 [label="gini = 0.0\nsamples = 1\nvalue = [0, 0, 0, 0, 0, 1, 0]"] ;
396 -> 397 ;
398 [label="gini = 0.0\nsamples = 3\nvalue = [0, 0, 0, 3, 0, 0, 0]"] ;
396 -> 398 ;
399 [label="X[0] <= 2303.0\ngini = 0.5\nsamples = 4\nvalue = [0, 0, 0, 2, 0, 2, 0]"] ;
393 -> 399 ;
400 [label="gini = 0.0\nsamples = 2\nvalue = [0, 0, 0, 0, 0, 2, 0]"] ;
399 -> 400 ;
401 [label="gini = 0.0\nsamples = 2\nvalue = [0, 0, 0, 2, 0, 0, 0]"] ;
399 -> 401 ;
402 [label="X[5] <= 768.5\ngini = 0.667\nsamples = 3\nvalue = [0, 0, 1, 1, 0, 1, 0]"] ;
392 -> 402 ;
403 [label="gini = 0.0\nsamples = 1\nvalue = [0, 0, 0, 0, 0, 1, 0]"] ;
402 -> 403 ;
404 [label="X[2] <= 12.5\ngini = 0.5\nsamples = 2\nvalue = [0, 0, 1, 1, 0, 0, 0]"] ;
402 -> 404 ;
405 [label="gini = 0.0\nsamples = 1\nvalue = [0, 0, 0, 1, 0, 0, 0]"] ;
404 -> 405 ;
406 [label="gini = 0.0\nsamples = 1\nvalue = [0, 0, 1, 0, 0, 0, 0]"] ;
404 -> 406 ;
407 [label="X[5] <= 1535.0\ngini = 0.027\nsamples = 592\nvalue = [0, 0, 5, 584, 0, 3, 0]"] ;
391 -> 407 ;
408 [label="X[1] <= 348.5\ngini = 0.021\nsamples = 570\nvalue = [0, 0, 3, 564, 0, 3, 0]"] ;
407 -> 408 ;
409 [label="X[0] <= 2252.5\ngini = 0.018\nsamples = 558\nvalue = [0, 0, 2, 553, 0, 3, 0]"] ;
408 -> 409 ;
410 [label="X[6] <= 204.5\ngini = 0.005\nsamples = 419\nvalue = [0, 0, 1, 418, 0, 0, 0]"] ;
409 -> 410 ;
411 [label="X[5] <= 441.0\ngini = 0.124\nsamples = 15\nvalue = [0, 0, 1, 14, 0, 0, 0]"] ;
410 -> 411 ;
412 [label="gini = 0.0\nsamples = 1\nvalue = [0, 0, 1, 0, 0, 0, 0]"] ;
411 -> 412 ;
413 [label="gini = 0.0\nsamples = 14\nvalue = [0, 0, 0, 14, 0, 0, 0]"] ;
411 -> 413 ;
414 [label="gini = 0.0\nsamples = 404\nvalue = [0, 0, 0, 404, 0, 0, 0]"] ;
410 -> 414 ;
415 [label="X[2] <= 24.0\ngini = 0.056\nsamples = 139\nvalue = [0, 0, 1, 135, 0, 3, 0]"] ;
409 -> 415 ;
416 [label="X[27] <= 0.5\ngini = 0.043\nsamples = 138\nvalue = [0, 0, 0, 135, 0, 3, 0]"] ;
415 -> 416 ;
417 [label="X[19] <= 0.5\ngini = 0.016\nsamples = 128\nvalue = [0, 0, 0, 127, 0, 1, 0]"] ;
416 -> 417 ;
418 [label="gini = 0.0\nsamples = 119\nvalue = [0, 0, 0, 119, 0, 0, 0]"] ;
417 -> 418 ;
419 [label="X[7] <= 210.0\ngini = 0.198\nsamples = 9\nvalue = [0, 0, 0, 8, 0, 1, 0]"] ;
417 -> 419 ;
420 [label="gini = 0.0\nsamples = 1\nvalue = [0, 0, 0, 0, 0, 1, 0]"] ;
419 -> 420 ;
421 [label="gini = 0.0\nsamples = 8\nvalue = [0, 0, 0, 8, 0, 0, 0]"] ;
419 -> 421 ;
422 [label="X[5] <= 1196.0\ngini = 0.32\nsamples = 10\nvalue = [0, 0, 0, 8, 0, 2, 0]"] ;
416 -> 422 ;
423 [label="X[9] <= 1117.0\ngini = 0.198\nsamples = 9\nvalue = [0, 0, 0, 8, 0, 1, 0]"] ;
422 -> 423 ;
424 [label="gini = 0.0\nsamples = 6\nvalue = [0, 0, 0, 6, 0, 0, 0]"] ;
423 -> 424 ;
425 [label="X[9] <= 1136.5\ngini = 0.444\nsamples = 3\nvalue = [0, 0, 0, 2, 0, 1, 0]"] ;
423 -> 425 ;
426 [label="gini = 0.0\nsamples = 1\nvalue = [0, 0, 0, 0, 0, 1, 0]"] ;
425 -> 426 ;
427 [label="gini = 0.0\nsamples = 2\nvalue = [0, 0, 0, 2, 0, 0, 0]"] ;
425 -> 427 ;
428 [label="gini = 0.0\nsamples = 1\nvalue = [0, 0, 0, 0, 0, 1, 0]"] ;
422 -> 428 ;
429 [label="gini = 0.0\nsamples = 1\nvalue = [0, 0, 1, 0, 0, 0, 0]"] ;
415 -> 429 ;
430 [label="X[1] <= 349.5\ngini = 0.153\nsamples = 12\nvalue = [0, 0, 1, 11, 0, 0, 0]"] ;
408 -> 430 ;
431 [label="gini = 0.0\nsamples = 1\nvalue = [0, 0, 1, 0, 0, 0, 0]"] ;
430 -> 431 ;
432 [label="gini = 0.0\nsamples = 11\nvalue = [0, 0, 0, 11, 0, 0, 0]"] ;
430 -> 432 ;
433 [label="X[9] <= 1077.0\ngini = 0.165\nsamples = 22\nvalue = [0, 0, 2, 20, 0, 0, 0]"] ;
407 -> 433 ;
434 [label="X[0] <= 2273.5\ngini = 0.091\nsamples = 21\nvalue = [0, 0, 1, 20, 0, 0, 0]"] ;
433 -> 434 ;
435 [label="gini = 0.0\nsamples = 20\nvalue = [0, 0, 0, 20, 0, 0, 0]"] ;
434 -> 435 ;
436 [label="gini = 0.0\nsamples = 1\nvalue = [0, 0, 1, 0, 0, 0, 0]"] ;
434 -> 436 ;
437 [label="gini = 0.0\nsamples = 1\nvalue = [0, 0, 1, 0, 0, 0, 0]"] ;
433 -> 437 ;
438 [label="X[30] <= 0.5\ngini = 0.243\nsamples = 74\nvalue = [0, 0, 5, 64, 0, 5, 0]"] ;
384 -> 438 ;
439 [label="X[5] <= 1449.5\ngini = 0.203\nsamples = 72\nvalue = [0, 0, 3, 64, 0, 5, 0]"] ;
438 -> 439 ;
440 [label="X[7] <= 187.0\ngini = 0.163\nsamples = 69\nvalue = [0, 0, 3, 63, 0, 3, 0]"] ;
439 -> 440 ;
441 [label="gini = 0.0\nsamples = 1\nvalue = [0, 0, 1, 0, 0, 0, 0]"] ;
440 -> 441 ;
442 [label="X[29] <= 0.5\ngini = 0.139\nsamples = 68\nvalue = [0, 0, 2, 63, 0, 3, 0]"] ;
440 -> 442 ;
443 [label="X[7] <= 212.0\ngini = 0.09\nsamples = 64\nvalue = [0, 0, 1, 61, 0, 2, 0]"] ;
442 -> 443 ;
444 [label="X[9] <= 1379.5\ngini = 0.46\nsamples = 10\nvalue = [0, 0, 1, 7, 0, 2, 0]"] ;
443 -> 444 ;
445 [label="X[8] <= 118.5\ngini = 0.219\nsamples = 8\nvalue = [0, 0, 1, 7, 0, 0, 0]"] ;
444 -> 445 ;
446 [label="gini = 0.0\nsamples = 7\nvalue = [0, 0, 0, 7, 0, 0, 0]"] ;
445 -> 446 ;
447 [label="gini = 0.0\nsamples = 1\nvalue = [0, 0, 1, 0, 0, 0, 0]"] ;
445 -> 447 ;
448 [label="gini = 0.0\nsamples = 2\nvalue = [0, 0, 0, 0, 0, 2, 0]"] ;
444 -> 448 ;
449 [label="gini = 0.0\nsamples = 54\nvalue = [0, 0, 0, 54, 0, 0, 0]"] ;
443 -> 449 ;
450 [label="X[6] <= 219.0\ngini = 0.625\nsamples = 4\nvalue = [0, 0, 1, 2, 0, 1, 0]"] ;
442 -> 450 ;
451 [label="X[8] <= 163.0\ngini = 0.5\nsamples = 2\nvalue = [0, 0, 1, 0, 0, 1, 0]"] ;
450 -> 451 ;
452 [label="gini = 0.0\nsamples = 1\nvalue = [0, 0, 1, 0, 0, 0, 0]"] ;
451 -> 452 ;
453 [label="gini = 0.0\nsamples = 1\nvalue = [0, 0, 0, 0, 0, 1, 0]"] ;
451 -> 453 ;
454 [label="gini = 0.0\nsamples = 2\nvalue = [0, 0, 0, 2, 0, 0, 0]"] ;
450 -> 454 ;
455 [label="X[0] <= 2338.5\ngini = 0.444\nsamples = 3\nvalue = [0, 0, 0, 1, 0, 2, 0]"] ;
439 -> 455 ;
456 [label="gini = 0.0\nsamples = 2\nvalue = [0, 0, 0, 0, 0, 2, 0]"] ;
455 -> 456 ;
457 [label="gini = 0.0\nsamples = 1\nvalue = [0, 0, 0, 1, 0, 0, 0]"] ;
455 -> 457 ;
458 [label="gini = 0.0\nsamples = 2\nvalue = [0, 0, 2, 0, 0, 0, 0]"] ;
438 -> 458 ;
459 [label="gini = 0.0\nsamples = 9\nvalue = [0, 0, 0, 0, 0, 9, 0]"] ;
377 -> 459 ;
460 [label="X[16] <= 0.5\ngini = 0.519\nsamples = 1692\nvalue = [0, 1, 370, 1090, 0, 231, 0]"] ;
376 -> 460 ;
461 [label="X[5] <= 825.0\ngini = 0.65\nsamples = 940\nvalue = [0, 1, 309, 403, 0, 227, 0]"] ;
460 -> 461 ;
462 [label="X[3] <= 51.0\ngini = 0.626\nsamples = 446\nvalue = [0, 1, 220, 93, 0, 132, 0]"] ;
461 -> 462 ;
463 [label="X[0] <= 2320.0\ngini = 0.613\nsamples = 111\nvalue = [0, 1, 31, 58, 0, 21, 0]"] ;
462 -> 463 ;
464 [label="X[2] <= 31.0\ngini = 0.554\nsamples = 95\nvalue = [0, 0, 24, 57, 0, 14, 0]"] ;
463 -> 464 ;
465 [label="X[0] <= 1993.0\ngini = 0.517\nsamples = 88\nvalue = [0, 0, 18, 57, 0, 13, 0]"] ;
464 -> 465 ;
466 [label="gini = 0.0\nsamples = 5\nvalue = [0, 0, 0, 0, 0, 5, 0]"] ;
465 -> 466 ;
467 [label="X[0] <= 2066.5\ngini = 0.472\nsamples = 83\nvalue = [0, 0, 18, 57, 0, 8, 0]"] ;
465 -> 467 ;
468 [label="X[7] <= 168.5\ngini = 0.202\nsamples = 36\nvalue = [0, 0, 3, 32, 0, 1, 0]"] ;
467 -> 468 ;
469 [label="gini = 0.0\nsamples = 1\nvalue = [0, 0, 0, 0, 0, 1, 0]"] ;
468 -> 469 ;
470 [label="X[1] <= 333.0\ngini = 0.157\nsamples = 35\nvalue = [0, 0, 3, 32, 0, 0, 0]"] ;
468 -> 470 ;
471 [label="X[7] <= 246.0\ngini = 0.111\nsamples = 34\nvalue = [0, 0, 2, 32, 0, 0, 0]"] ;
470 -> 471 ;
472 [label="X[6] <= 250.0\ngini = 0.059\nsamples = 33\nvalue = [0, 0, 1, 32, 0, 0, 0]"] ;
471 -> 472 ;
473 [label="gini = 0.0\nsamples = 28\nvalue = [0, 0, 0, 28, 0, 0, 0]"] ;
472 -> 473 ;
474 [label="X[14] <= 0.5\ngini = 0.32\nsamples = 5\nvalue = [0, 0, 1, 4, 0, 0, 0]"] ;
472 -> 474 ;
475 [label="gini = 0.0\nsamples = 1\nvalue = [0, 0, 1, 0, 0, 0, 0]"] ;
474 -> 475 ;
476 [label="gini = 0.0\nsamples = 4\nvalue = [0, 0, 0, 4, 0, 0, 0]"] ;
474 -> 476 ;
477 [label="gini = 0.0\nsamples = 1\nvalue = [0, 0, 1, 0, 0, 0, 0]"] ;
471 -> 477 ;
478 [label="gini = 0.0\nsamples = 1\nvalue = [0, 0, 1, 0, 0, 0, 0]"] ;
470 -> 478 ;
479 [label="X[17] <= 0.5\ngini = 0.593\nsamples = 47\nvalue = [0, 0, 15, 25, 0, 7, 0]"] ;
467 -> 479 ;
480 [label="X[0] <= 2287.0\ngini = 0.644\nsamples = 29\nvalue = [0, 0, 13, 9, 0, 7, 0]"] ;
479 -> 480 ;
481 [label="X[7] <= 193.5\ngini = 0.553\nsamples = 21\nvalue = [0, 0, 12, 2, 0, 7, 0]"] ;
480 -> 481 ;
482 [label="X[8] <= 43.0\ngini = 0.406\nsamples = 8\nvalue = [0, 0, 1, 1, 0, 6, 0]"] ;
481 -> 482 ;
483 [label="gini = 0.0\nsamples = 1\nvalue = [0, 0, 0, 1, 0, 0, 0]"] ;
482 -> 483 ;
484 [label="X[7] <= 168.0\ngini = 0.245\nsamples = 7\nvalue = [0, 0, 1, 0, 0, 6, 0]"] ;
482 -> 484 ;
485 [label="gini = 0.0\nsamples = 1\nvalue = [0, 0, 1, 0, 0, 0, 0]"] ;
484 -> 485 ;
486 [label="gini = 0.0\nsamples = 6\nvalue = [0, 0, 0, 0, 0, 6, 0]"] ;
484 -> 486 ;
487 [label="X[7] <= 239.0\ngini = 0.272\nsamples = 13\nvalue = [0, 0, 11, 1, 0, 1, 0]"] ;
481 -> 487 ;
488 [label="X[4] <= -3.5\ngini = 0.153\nsamples = 12\nvalue = [0, 0, 11, 0, 0, 1, 0]"] ;
487 -> 488 ;
489 [label="gini = 0.0\nsamples = 1\nvalue = [0, 0, 0, 0, 0, 1, 0]"] ;
488 -> 489 ;
490 [label="gini = 0.0\nsamples = 11\nvalue = [0, 0, 11, 0, 0, 0, 0]"] ;
488 -> 490 ;
491 [label="gini = 0.0\nsamples = 1\nvalue = [0, 0, 0, 1, 0, 0, 0]"] ;
487 -> 491 ;
492 [label="X[2] <= 17.0\ngini = 0.219\nsamples = 8\nvalue = [0, 0, 1, 7, 0, 0, 0]"] ;
480 -> 492 ;
493 [label="gini = 0.0\nsamples = 7\nvalue = [0, 0, 0, 7, 0, 0, 0]"] ;
492 -> 493 ;
494 [label="gini = 0.0\nsamples = 1\nvalue = [0, 0, 1, 0, 0, 0, 0]"] ;
492 -> 494 ;
495 [label="X[6] <= 216.5\ngini = 0.198\nsamples = 18\nvalue = [0, 0, 2, 16, 0, 0, 0]"] ;
479 -> 495 ;
496 [label="X[9] <= 591.0\ngini = 0.444\nsamples = 3\nvalue = [0, 0, 2, 1, 0, 0, 0]"] ;
495 -> 496 ;
497 [label="gini = 0.0\nsamples = 1\nvalue = [0, 0, 0, 1, 0, 0, 0]"] ;
496 -> 497 ;
498 [label="gini = 0.0\nsamples = 2\nvalue = [0, 0, 2, 0, 0, 0, 0]"] ;
496 -> 498 ;
499 [label="gini = 0.0\nsamples = 15\nvalue = [0, 0, 0, 15, 0, 0, 0]"] ;
495 -> 499 ;
500 [label="X[0] <= 2100.0\ngini = 0.245\nsamples = 7\nvalue = [0, 0, 6, 0, 0, 1, 0]"] ;
464 -> 500 ;
501 [label="gini = 0.0\nsamples = 6\nvalue = [0, 0, 6, 0, 0, 0, 0]"] ;
500 -> 501 ;
502 [label="gini = 0.0\nsamples = 1\nvalue = [0, 0, 0, 0, 0, 1, 0]"] ;
500 -> 502 ;
503 [label="X[8] <= 85.0\ngini = 0.609\nsamples = 16\nvalue = [0, 1, 7, 1, 0, 7, 0]"] ;
463 -> 503 ;
504 [label="gini = 0.0\nsamples = 4\nvalue = [0, 0, 0, 0, 0, 4, 0]"] ;
503 -> 504 ;
505 [label="X[3] <= 36.0\ngini = 0.583\nsamples = 12\nvalue = [0, 1, 7, 1, 0, 3, 0]"] ;
503 -> 505 ;
506 [label="X[5] <= 530.5\ngini = 0.37\nsamples = 9\nvalue = [0, 0, 7, 1, 0, 1, 0]"] ;
505 -> 506 ;
507 [label="X[14] <= 0.5\ngini = 0.219\nsamples = 8\nvalue = [0, 0, 7, 0, 0, 1, 0]"] ;
506 -> 507 ;
508 [label="gini = 0.0\nsamples = 7\nvalue = [0, 0, 7, 0, 0, 0, 0]"] ;
507 -> 508 ;
509 [label="gini = 0.0\nsamples = 1\nvalue = [0, 0, 0, 0, 0, 1, 0]"] ;
507 -> 509 ;
510 [label="gini = 0.0\nsamples = 1\nvalue = [0, 0, 0, 1, 0, 0, 0]"] ;
506 -> 510 ;
511 [label="X[8] <= 123.0\ngini = 0.444\nsamples = 3\nvalue = [0, 1, 0, 0, 0, 2, 0]"] ;
505 -> 511 ;
512 [label="gini = 0.0\nsamples = 1\nvalue = [0, 1, 0, 0, 0, 0, 0]"] ;
511 -> 512 ;
513 [label="gini = 0.0\nsamples = 2\nvalue = [0, 0, 0, 0, 0, 2, 0]"] ;
511 -> 513 ;
514 [label="X[1] <= 58.5\ngini = 0.561\nsamples = 335\nvalue = [0, 0, 189, 35, 0, 111, 0]"] ;
462 -> 514 ;
515 [label="X[0] <= 1988.0\ngini = 0.53\nsamples = 138\nvalue = [0, 0, 56, 6, 0, 76, 0]"] ;
514 -> 515 ;
516 [label="gini = 0.0\nsamples = 20\nvalue = [0, 0, 0, 0, 0, 20, 0]"] ;
515 -> 516 ;
517 [label="X[23] <= 0.5\ngini = 0.547\nsamples = 118\nvalue = [0, 0, 56, 6, 0, 56, 0]"] ;
515 -> 517 ;
518 [label="X[15] <= 0.5\ngini = 0.436\nsamples = 56\nvalue = [0, 0, 38, 0, 0, 18, 0]"] ;
517 -> 518 ;
519 [label="X[9] <= 778.0\ngini = 0.314\nsamples = 41\nvalue = [0, 0, 33, 0, 0, 8, 0]"] ;
518 -> 519 ;
520 [label="X[17] <= 0.5\ngini = 0.202\nsamples = 35\nvalue = [0, 0, 31, 0, 0, 4, 0]"] ;
519 -> 520 ;
521 [label="X[6] <= 227.0\ngini = 0.064\nsamples = 30\nvalue = [0, 0, 29, 0, 0, 1, 0]"] ;
520 -> 521 ;
522 [label="gini = 0.0\nsamples = 29\nvalue = [0, 0, 29, 0, 0, 0, 0]"] ;
521 -> 522 ;
523 [label="gini = 0.0\nsamples = 1\nvalue = [0, 0, 0, 0, 0, 1, 0]"] ;
521 -> 523 ;
524 [label="X[2] <= 16.5\ngini = 0.48\nsamples = 5\nvalue = [0, 0, 2, 0, 0, 3, 0]"] ;
520 -> 524 ;
525 [label="gini = 0.0\nsamples = 2\nvalue = [0, 0, 2, 0, 0, 0, 0]"] ;
524 -> 525 ;
526 [label="gini = 0.0\nsamples = 3\nvalue = [0, 0, 0, 0, 0, 3, 0]"] ;
524 -> 526 ;
527 [label="X[9] <= 962.0\ngini = 0.444\nsamples = 6\nvalue = [0, 0, 2, 0, 0, 4, 0]"] ;
519 -> 527 ;
528 [label="gini = 0.0\nsamples = 4\nvalue = [0, 0, 0, 0, 0, 4, 0]"] ;
527 -> 528 ;
529 [label="gini = 0.0\nsamples = 2\nvalue = [0, 0, 2, 0, 0, 0, 0]"] ;
527 -> 529 ;
530 [label="X[0] <= 2273.0\ngini = 0.444\nsamples = 15\nvalue = [0, 0, 5, 0, 0, 10, 0]"] ;
518 -> 530 ;
531 [label="gini = 0.0\nsamples = 10\nvalue = [0, 0, 0, 0, 0, 10, 0]"] ;
530 -> 531 ;
532 [label="gini = 0.0\nsamples = 5\nvalue = [0, 0, 5, 0, 0, 0, 0]"] ;
530 -> 532 ;
533 [label="X[9] <= 832.5\ngini = 0.531\nsamples = 62\nvalue = [0, 0, 18, 6, 0, 38, 0]"] ;
517 -> 533 ;
534 [label="X[9] <= 584.0\ngini = 0.577\nsamples = 52\nvalue = [0, 0, 18, 6, 0, 28, 0]"] ;
533 -> 534 ;
535 [label="X[8] <= 64.5\ngini = 0.491\nsamples = 37\nvalue = [0, 0, 6, 6, 0, 25, 0]"] ;
534 -> 535 ;
536 [label="X[6] <= 214.5\ngini = 0.667\nsamples = 12\nvalue = [0, 0, 4, 4, 0, 4, 0]"] ;
535 -> 536 ;
537 [label="X[9] <= 536.5\ngini = 0.5\nsamples = 6\nvalue = [0, 0, 4, 1, 0, 1, 0]"] ;
536 -> 537 ;
538 [label="X[0] <= 2310.0\ngini = 0.32\nsamples = 5\nvalue = [0, 0, 4, 1, 0, 0, 0]"] ;
537 -> 538 ;
539 [label="gini = 0.0\nsamples = 4\nvalue = [0, 0, 4, 0, 0, 0, 0]"] ;
538 -> 539 ;
540 [label="gini = 0.0\nsamples = 1\nvalue = [0, 0, 0, 1, 0, 0, 0]"] ;
538 -> 540 ;
541 [label="gini = 0.0\nsamples = 1\nvalue = [0, 0, 0, 0, 0, 1, 0]"] ;
537 -> 541 ;
542 [label="X[4] <= 70.0\ngini = 0.5\nsamples = 6\nvalue = [0, 0, 0, 3, 0, 3, 0]"] ;
536 -> 542 ;
543 [label="gini = 0.0\nsamples = 2\nvalue = [0, 0, 0, 2, 0, 0, 0]"] ;
542 -> 543 ;
544 [label="X[0] <= 2191.5\ngini = 0.375\nsamples = 4\nvalue = [0, 0, 0, 1, 0, 3, 0]"] ;
542 -> 544 ;
545 [label="gini = 0.0\nsamples = 3\nvalue = [0, 0, 0, 0, 0, 3, 0]"] ;
544 -> 545 ;
546 [label="gini = 0.0\nsamples = 1\nvalue = [0, 0, 0, 1, 0, 0, 0]"] ;
544 -> 546 ;
547 [label="X[0] <= 2296.5\ngini = 0.282\nsamples = 25\nvalue = [0, 0, 2, 2, 0, 21, 0]"] ;
535 -> 547 ;
548 [label="X[6] <= 227.5\ngini = 0.163\nsamples = 23\nvalue = [0, 0, 1, 1, 0, 21, 0]"] ;
547 -> 548 ;
549 [label="X[3] <= 76.0\ngini = 0.087\nsamples = 22\nvalue = [0, 0, 0, 1, 0, 21, 0]"] ;
548 -> 549 ;
550 [label="X[2] <= 23.0\ngini = 0.5\nsamples = 2\nvalue = [0, 0, 0, 1, 0, 1, 0]"] ;
549 -> 550 ;
551 [label="gini = 0.0\nsamples = 1\nvalue = [0, 0, 0, 1, 0, 0, 0]"] ;
550 -> 551 ;
552 [label="gini = 0.0\nsamples = 1\nvalue = [0, 0, 0, 0, 0, 1, 0]"] ;
550 -> 552 ;
553 [label="gini = 0.0\nsamples = 20\nvalue = [0, 0, 0, 0, 0, 20, 0]"] ;
549 -> 553 ;
554 [label="gini = 0.0\nsamples = 1\nvalue = [0, 0, 1, 0, 0, 0, 0]"] ;
548 -> 554 ;
555 [label="X[2] <= 19.5\ngini = 0.5\nsamples = 2\nvalue = [0, 0, 1, 1, 0, 0, 0]"] ;
547 -> 555 ;
556 [label="gini = 0.0\nsamples = 1\nvalue = [0, 0, 1, 0, 0, 0, 0]"] ;
555 -> 556 ;
557 [label="gini = 0.0\nsamples = 1\nvalue = [0, 0, 0, 1, 0, 0, 0]"] ;
555 -> 557 ;
558 [label="X[4] <= 6.5\ngini = 0.32\nsamples = 15\nvalue = [0, 0, 12, 0, 0, 3, 0]"] ;
534 -> 558 ;
559 [label="gini = 0.0\nsamples = 2\nvalue = [0, 0, 0, 0, 0, 2, 0]"] ;
558 -> 559 ;
560 [label="X[5] <= 605.5\ngini = 0.142\nsamples = 13\nvalue = [0, 0, 12, 0, 0, 1, 0]"] ;
558 -> 560 ;
561 [label="gini = 0.0\nsamples = 11\nvalue = [0, 0, 11, 0, 0, 0, 0]"] ;
560 -> 561 ;
562 [label="X[8] <= 104.0\ngini = 0.5\nsamples = 2\nvalue = [0, 0, 1, 0, 0, 1, 0]"] ;
560 -> 562 ;
563 [label="gini = 0.0\nsamples = 1\nvalue = [0, 0, 1, 0, 0, 0, 0]"] ;
562 -> 563 ;
564 [label="gini = 0.0\nsamples = 1\nvalue = [0, 0, 0, 0, 0, 1, 0]"] ;
562 -> 564 ;
565 [label="gini = 0.0\nsamples = 10\nvalue = [0, 0, 0, 0, 0, 10, 0]"] ;
533 -> 565 ;
566 [label="X[9] <= 872.5\ngini = 0.491\nsamples = 197\nvalue = [0, 0, 133, 29, 0, 35, 0]"] ;
514 -> 566 ;
567 [label="X[23] <= 0.5\ngini = 0.357\nsamples = 160\nvalue = [0, 0, 126, 17, 0, 17, 0]"] ;
566 -> 567 ;
568 [label="X[1] <= 92.5\ngini = 0.168\nsamples = 130\nvalue = [0, 0, 118, 0, 0, 12, 0]"] ;
567 -> 568 ;
569 [label="X[9] <= 773.5\ngini = 0.353\nsamples = 48\nvalue = [0, 0, 37, 0, 0, 11, 0]"] ;
568 -> 569 ;
570 [label="X[9] <= 287.0\ngini = 0.292\nsamples = 45\nvalue = [0, 0, 37, 0, 0, 8, 0]"] ;
569 -> 570 ;
571 [label="X[3] <= 315.5\ngini = 0.32\nsamples = 5\nvalue = [0, 0, 1, 0, 0, 4, 0]"] ;
570 -> 571 ;
572 [label="gini = 0.0\nsamples = 1\nvalue = [0, 0, 1, 0, 0, 0, 0]"] ;
571 -> 572 ;
573 [label="gini = 0.0\nsamples = 4\nvalue = [0, 0, 0, 0, 0, 4, 0]"] ;
571 -> 573 ;
574 [label="X[3] <= 63.5\ngini = 0.18\nsamples = 40\nvalue = [0, 0, 36, 0, 0, 4, 0]"] ;
570 -> 574 ;
575 [label="gini = 0.0\nsamples = 2\nvalue = [0, 0, 0, 0, 0, 2, 0]"] ;
574 -> 575 ;
576 [label="X[6] <= 246.5\ngini = 0.1\nsamples = 38\nvalue = [0, 0, 36, 0, 0, 2, 0]"] ;
574 -> 576 ;
577 [label="X[17] <= 0.5\ngini = 0.054\nsamples = 36\nvalue = [0, 0, 35, 0, 0, 1, 0]"] ;
576 -> 577 ;
578 [label="gini = 0.0\nsamples = 30\nvalue = [0, 0, 30, 0, 0, 0, 0]"] ;
577 -> 578 ;
579 [label="X[4] <= 77.5\ngini = 0.278\nsamples = 6\nvalue = [0, 0, 5, 0, 0, 1, 0]"] ;
577 -> 579 ;
580 [label="gini = 0.0\nsamples = 5\nvalue = [0, 0, 5, 0, 0, 0, 0]"] ;
579 -> 580 ;
581 [label="gini = 0.0\nsamples = 1\nvalue = [0, 0, 0, 0, 0, 1, 0]"] ;
579 -> 581 ;
582 [label="X[5] <= 241.0\ngini = 0.5\nsamples = 2\nvalue = [0, 0, 1, 0, 0, 1, 0]"] ;
576 -> 582 ;
583 [label="gini = 0.0\nsamples = 1\nvalue = [0, 0, 1, 0, 0, 0, 0]"] ;
582 -> 583 ;
584 [label="gini = 0.0\nsamples = 1\nvalue = [0, 0, 0, 0, 0, 1, 0]"] ;
582 -> 584 ;
585 [label="gini = 0.0\nsamples = 3\nvalue = [0, 0, 0, 0, 0, 3, 0]"] ;
569 -> 585 ;
586 [label="X[9] <= 186.0\ngini = 0.024\nsamples = 82\nvalue = [0, 0, 81, 0, 0, 1, 0]"] ;
568 -> 586 ;
587 [label="X[9] <= 178.5\ngini = 0.32\nsamples = 5\nvalue = [0, 0, 4, 0, 0, 1, 0]"] ;
586 -> 587 ;
588 [label="gini = 0.0\nsamples = 4\nvalue = [0, 0, 4, 0, 0, 0, 0]"] ;
587 -> 588 ;
589 [label="gini = 0.0\nsamples = 1\nvalue = [0, 0, 0, 0, 0, 1, 0]"] ;
587 -> 589 ;
590 [label="gini = 0.0\nsamples = 77\nvalue = [0, 0, 77, 0, 0, 0, 0]"] ;
586 -> 590 ;
591 [label="X[9] <= 438.5\ngini = 0.58\nsamples = 30\nvalue = [0, 0, 8, 17, 0, 5, 0]"] ;
567 -> 591 ;
592 [label="X[7] <= 248.5\ngini = 0.105\nsamples = 18\nvalue = [0, 0, 1, 17, 0, 0, 0]"] ;
591 -> 592 ;
593 [label="gini = 0.0\nsamples = 17\nvalue = [0, 0, 0, 17, 0, 0, 0]"] ;
592 -> 593 ;
594 [label="gini = 0.0\nsamples = 1\nvalue = [0, 0, 1, 0, 0, 0, 0]"] ;
592 -> 594 ;
595 [label="X[9] <= 501.0\ngini = 0.486\nsamples = 12\nvalue = [0, 0, 7, 0, 0, 5, 0]"] ;
591 -> 595 ;
596 [label="gini = 0.0\nsamples = 5\nvalue = [0, 0, 0, 0, 0, 5, 0]"] ;
595 -> 596 ;
597 [label="gini = 0.0\nsamples = 7\nvalue = [0, 0, 7, 0, 0, 0, 0]"] ;
595 -> 597 ;
598 [label="X[9] <= 1531.5\ngini = 0.622\nsamples = 37\nvalue = [0, 0, 7, 12, 0, 18, 0]"] ;
566 -> 598 ;
599 [label="X[5] <= 255.5\ngini = 0.447\nsamples = 26\nvalue = [0, 0, 7, 1, 0, 18, 0]"] ;
598 -> 599 ;
600 [label="gini = 0.0\nsamples = 4\nvalue = [0, 0, 4, 0, 0, 0, 0]"] ;
599 -> 600 ;
601 [label="X[9] <= 1470.0\ngini = 0.31\nsamples = 22\nvalue = [0, 0, 3, 1, 0, 18, 0]"] ;
599 -> 601 ;
602 [label="X[3] <= 63.5\ngini = 0.185\nsamples = 20\nvalue = [0, 0, 1, 1, 0, 18, 0]"] ;
601 -> 602 ;
603 [label="X[5] <= 401.0\ngini = 0.5\nsamples = 2\nvalue = [0, 0, 0, 1, 0, 1, 0]"] ;
602 -> 603 ;
604 [label="gini = 0.0\nsamples = 1\nvalue = [0, 0, 0, 0, 0, 1, 0]"] ;
603 -> 604 ;
605 [label="gini = 0.0\nsamples = 1\nvalue = [0, 0, 0, 1, 0, 0, 0]"] ;
603 -> 605 ;
606 [label="X[15] <= 0.5\ngini = 0.105\nsamples = 18\nvalue = [0, 0, 1, 0, 0, 17, 0]"] ;
602 -> 606 ;
607 [label="gini = 0.0\nsamples = 16\nvalue = [0, 0, 0, 0, 0, 16, 0]"] ;
606 -> 607 ;
608 [label="X[3] <= 148.5\ngini = 0.5\nsamples = 2\nvalue = [0, 0, 1, 0, 0, 1, 0]"] ;
606 -> 608 ;
609 [label="gini = 0.0\nsamples = 1\nvalue = [0, 0, 1, 0, 0, 0, 0]"] ;
608 -> 609 ;
610 [label="gini = 0.0\nsamples = 1\nvalue = [0, 0, 0, 0, 0, 1, 0]"] ;
608 -> 610 ;
611 [label="gini = 0.0\nsamples = 2\nvalue = [0, 0, 2, 0, 0, 0, 0]"] ;
601 -> 611 ;
612 [label="gini = 0.0\nsamples = 11\nvalue = [0, 0, 0, 11, 0, 0, 0]"] ;
598 -> 612 ;
613 [label="X[0] <= 2191.5\ngini = 0.537\nsamples = 494\nvalue = [0, 0, 89, 310, 0, 95, 0]"] ;
461 -> 613 ;
614 [label="X[7] <= 173.5\ngini = 0.135\nsamples = 126\nvalue = [0, 0, 5, 117, 0, 4, 0]"] ;
613 -> 614 ;
615 [label="X[0] <= 2093.0\ngini = 0.32\nsamples = 5\nvalue = [0, 0, 4, 1, 0, 0, 0]"] ;
614 -> 615 ;
616 [label="gini = 0.0\nsamples = 1\nvalue = [0, 0, 0, 1, 0, 0, 0]"] ;
615 -> 616 ;
617 [label="gini = 0.0\nsamples = 4\nvalue = [0, 0, 4, 0, 0, 0, 0]"] ;
615 -> 617 ;
618 [label="X[6] <= 253.5\ngini = 0.08\nsamples = 121\nvalue = [0, 0, 1, 116, 0, 4, 0]"] ;
614 -> 618 ;
619 [label="X[5] <= 1447.0\ngini = 0.065\nsamples = 120\nvalue = [0, 0, 1, 116, 0, 3, 0]"] ;
618 -> 619 ;
620 [label="X[23] <= 0.5\ngini = 0.049\nsamples = 119\nvalue = [0, 0, 1, 116, 0, 2, 0]"] ;
619 -> 620 ;
621 [label="gini = 0.0\nsamples = 108\nvalue = [0, 0, 0, 108, 0, 0, 0]"] ;
620 -> 621 ;
622 [label="X[5] <= 1234.5\ngini = 0.43\nsamples = 11\nvalue = [0, 0, 1, 8, 0, 2, 0]"] ;
620 -> 622 ;
623 [label="gini = 0.0\nsamples = 8\nvalue = [0, 0, 0, 8, 0, 0, 0]"] ;
622 -> 623 ;
624 [label="X[1] <= 40.0\ngini = 0.444\nsamples = 3\nvalue = [0, 0, 1, 0, 0, 2, 0]"] ;
622 -> 624 ;
625 [label="gini = 0.0\nsamples = 2\nvalue = [0, 0, 0, 0, 0, 2, 0]"] ;
624 -> 625 ;
626 [label="gini = 0.0\nsamples = 1\nvalue = [0, 0, 1, 0, 0, 0, 0]"] ;
624 -> 626 ;
627 [label="gini = 0.0\nsamples = 1\nvalue = [0, 0, 0, 0, 0, 1, 0]"] ;
619 -> 627 ;
628 [label="gini = 0.0\nsamples = 1\nvalue = [0, 0, 0, 0, 0, 1, 0]"] ;
618 -> 628 ;
629 [label="X[3] <= 296.0\ngini = 0.612\nsamples = 368\nvalue = [0, 0, 84, 193, 0, 91, 0]"] ;
613 -> 629 ;
630 [label="X[19] <= 0.5\ngini = 0.662\nsamples = 229\nvalue = [0, 0, 71, 69, 0, 89, 0]"] ;
629 -> 630 ;
631 [label="X[3] <= 36.0\ngini = 0.602\nsamples = 159\nvalue = [0, 0, 34, 39, 0, 86, 0]"] ;
630 -> 631 ;
632 [label="X[7] <= 223.5\ngini = 0.591\nsamples = 54\nvalue = [0, 0, 8, 29, 0, 17, 0]"] ;
631 -> 632 ;
633 [label="X[4] <= 11.0\ngini = 0.631\nsamples = 30\nvalue = [0, 0, 6, 10, 0, 14, 0]"] ;
632 -> 633 ;
634 [label="X[9] <= 525.0\ngini = 0.472\nsamples = 21\nvalue = [0, 0, 0, 8, 0, 13, 0]"] ;
633 -> 634 ;
635 [label="gini = 0.0\nsamples = 7\nvalue = [0, 0, 0, 0, 0, 7, 0]"] ;
634 -> 635 ;
636 [label="X[0] <= 2308.0\ngini = 0.49\nsamples = 14\nvalue = [0, 0, 0, 8, 0, 6, 0]"] ;
634 -> 636 ;
637 [label="X[7] <= 209.5\ngini = 0.397\nsamples = 11\nvalue = [0, 0, 0, 8, 0, 3, 0]"] ;
636 -> 637 ;
638 [label="gini = 0.0\nsamples = 5\nvalue = [0, 0, 0, 5, 0, 0, 0]"] ;
637 -> 638 ;
639 [label="X[2] <= 11.0\ngini = 0.5\nsamples = 6\nvalue = [0, 0, 0, 3, 0, 3, 0]"] ;
637 -> 639 ;
640 [label="gini = 0.0\nsamples = 2\nvalue = [0, 0, 0, 2, 0, 0, 0]"] ;
639 -> 640 ;
641 [label="X[4] <= 5.5\ngini = 0.375\nsamples = 4\nvalue = [0, 0, 0, 1, 0, 3, 0]"] ;
639 -> 641 ;
642 [label="gini = 0.0\nsamples = 3\nvalue = [0, 0, 0, 0, 0, 3, 0]"] ;
641 -> 642 ;
643 [label="gini = 0.0\nsamples = 1\nvalue = [0, 0, 0, 1, 0, 0, 0]"] ;
641 -> 643 ;
644 [label="gini = 0.0\nsamples = 3\nvalue = [0, 0, 0, 0, 0, 3, 0]"] ;
636 -> 644 ;
645 [label="X[9] <= 1015.0\ngini = 0.494\nsamples = 9\nvalue = [0, 0, 6, 2, 0, 1, 0]"] ;
633 -> 645 ;
646 [label="X[6] <= 250.0\ngini = 0.245\nsamples = 7\nvalue = [0, 0, 6, 0, 0, 1, 0]"] ;
645 -> 646 ;
647 [label="gini = 0.0\nsamples = 6\nvalue = [0, 0, 6, 0, 0, 0, 0]"] ;
646 -> 647 ;
648 [label="gini = 0.0\nsamples = 1\nvalue = [0, 0, 0, 0, 0, 1, 0]"] ;
646 -> 648 ;
649 [label="gini = 0.0\nsamples = 2\nvalue = [0, 0, 0, 2, 0, 0, 0]"] ;
645 -> 649 ;
650 [label="X[27] <= 0.5\ngini = 0.351\nsamples = 24\nvalue = [0, 0, 2, 19, 0, 3, 0]"] ;
632 -> 650 ;
651 [label="X[8] <= 174.5\ngini = 0.244\nsamples = 22\nvalue = [0, 0, 2, 19, 0, 1, 0]"] ;
650 -> 651 ;
652 [label="gini = 0.0\nsamples = 17\nvalue = [0, 0, 0, 17, 0, 0, 0]"] ;
651 -> 652 ;
653 [label="X[14] <= 0.5\ngini = 0.64\nsamples = 5\nvalue = [0, 0, 2, 2, 0, 1, 0]"] ;
651 -> 653 ;
654 [label="X[6] <= 199.5\ngini = 0.444\nsamples = 3\nvalue = [0, 0, 0, 2, 0, 1, 0]"] ;
653 -> 654 ;
655 [label="gini = 0.0\nsamples = 2\nvalue = [0, 0, 0, 2, 0, 0, 0]"] ;
654 -> 655 ;
656 [label="gini = 0.0\nsamples = 1\nvalue = [0, 0, 0, 0, 0, 1, 0]"] ;
654 -> 656 ;
657 [label="gini = 0.0\nsamples = 2\nvalue = [0, 0, 2, 0, 0, 0, 0]"] ;
653 -> 657 ;
658 [label="gini = 0.0\nsamples = 2\nvalue = [0, 0, 0, 0, 0, 2, 0]"] ;
650 -> 658 ;
659 [label="X[4] <= 66.5\ngini = 0.498\nsamples = 105\nvalue = [0, 0, 26, 10, 0, 69, 0]"] ;
631 -> 659 ;
660 [label="X[6] <= 197.5\ngini = 0.225\nsamples = 62\nvalue = [0, 0, 8, 0, 0, 54, 0]"] ;
659 -> 660 ;
661 [label="X[2] <= 16.0\ngini = 0.444\nsamples = 3\nvalue = [0, 0, 2, 0, 0, 1, 0]"] ;
660 -> 661 ;
662 [label="gini = 0.0\nsamples = 1\nvalue = [0, 0, 0, 0, 0, 1, 0]"] ;
661 -> 662 ;
663 [label="gini = 0.0\nsamples = 2\nvalue = [0, 0, 2, 0, 0, 0, 0]"] ;
661 -> 663 ;
664 [label="X[3] <= 51.0\ngini = 0.183\nsamples = 59\nvalue = [0, 0, 6, 0, 0, 53, 0]"] ;
660 -> 664 ;
665 [label="X[1] <= 107.0\ngini = 0.49\nsamples = 7\nvalue = [0, 0, 3, 0, 0, 4, 0]"] ;
664 -> 665 ;
666 [label="X[15] <= 0.5\ngini = 0.375\nsamples = 4\nvalue = [0, 0, 3, 0, 0, 1, 0]"] ;
665 -> 666 ;
667 [label="gini = 0.0\nsamples = 3\nvalue = [0, 0, 3, 0, 0, 0, 0]"] ;
666 -> 667 ;
668 [label="gini = 0.0\nsamples = 1\nvalue = [0, 0, 0, 0, 0, 1, 0]"] ;
666 -> 668 ;
669 [label="gini = 0.0\nsamples = 3\nvalue = [0, 0, 0, 0, 0, 3, 0]"] ;
665 -> 669 ;
670 [label="X[3] <= 267.5\ngini = 0.109\nsamples = 52\nvalue = [0, 0, 3, 0, 0, 49, 0]"] ;
664 -> 670 ;
671 [label="X[4] <= 61.0\ngini = 0.075\nsamples = 51\nvalue = [0, 0, 2, 0, 0, 49, 0]"] ;
670 -> 671 ;
672 [label="gini = 0.0\nsamples = 42\nvalue = [0, 0, 0, 0, 0, 42, 0]"] ;
671 -> 672 ;
673 [label="X[0] <= 2310.0\ngini = 0.346\nsamples = 9\nvalue = [0, 0, 2, 0, 0, 7, 0]"] ;
671 -> 673 ;
674 [label="X[1] <= 27.0\ngini = 0.444\nsamples = 3\nvalue = [0, 0, 2, 0, 0, 1, 0]"] ;
673 -> 674 ;
675 [label="gini = 0.0\nsamples = 1\nvalue = [0, 0, 0, 0, 0, 1, 0]"] ;
674 -> 675 ;
676 [label="gini = 0.0\nsamples = 2\nvalue = [0, 0, 2, 0, 0, 0, 0]"] ;
674 -> 676 ;
677 [label="gini = 0.0\nsamples = 6\nvalue = [0, 0, 0, 0, 0, 6, 0]"] ;
673 -> 677 ;
678 [label="gini = 0.0\nsamples = 1\nvalue = [0, 0, 1, 0, 0, 0, 0]"] ;
670 -> 678 ;
679 [label="X[8] <= 106.0\ngini = 0.649\nsamples = 43\nvalue = [0, 0, 18, 10, 0, 15, 0]"] ;
659 -> 679 ;
680 [label="X[5] <= 1380.0\ngini = 0.486\nsamples = 25\nvalue = [0, 0, 16, 8, 0, 1, 0]"] ;
679 -> 680 ;
681 [label="X[9] <= 813.5\ngini = 0.551\nsamples = 15\nvalue = [0, 0, 6, 8, 0, 1, 0]"] ;
680 -> 681 ;
682 [label="gini = 0.0\nsamples = 8\nvalue = [0, 0, 0, 8, 0, 0, 0]"] ;
681 -> 682 ;
683 [label="X[9] <= 879.5\ngini = 0.245\nsamples = 7\nvalue = [0, 0, 6, 0, 0, 1, 0]"] ;
681 -> 683 ;
684 [label="gini = 0.0\nsamples = 1\nvalue = [0, 0, 0, 0, 0, 1, 0]"] ;
683 -> 684 ;
685 [label="gini = 0.0\nsamples = 6\nvalue = [0, 0, 6, 0, 0, 0, 0]"] ;
683 -> 685 ;
686 [label="gini = 0.0\nsamples = 10\nvalue = [0, 0, 10, 0, 0, 0, 0]"] ;
680 -> 686 ;
687 [label="X[0] <= 2315.0\ngini = 0.37\nsamples = 18\nvalue = [0, 0, 2, 2, 0, 14, 0]"] ;
679 -> 687 ;
688 [label="X[9] <= 599.5\ngini = 0.444\nsamples = 3\nvalue = [0, 0, 1, 2, 0, 0, 0]"] ;
687 -> 688 ;
689 [label="gini = 0.0\nsamples = 1\nvalue = [0, 0, 1, 0, 0, 0, 0]"] ;
688 -> 689 ;
690 [label="gini = 0.0\nsamples = 2\nvalue = [0, 0, 0, 2, 0, 0, 0]"] ;
688 -> 690 ;
691 [label="X[4] <= 154.5\ngini = 0.124\nsamples = 15\nvalue = [0, 0, 1, 0, 0, 14, 0]"] ;
687 -> 691 ;
692 [label="gini = 0.0\nsamples = 14\nvalue = [0, 0, 0, 0, 0, 14, 0]"] ;
691 -> 692 ;
693 [label="gini = 0.0\nsamples = 1\nvalue = [0, 0, 1, 0, 0, 0, 0]"] ;
691 -> 693 ;
694 [label="X[9] <= 355.5\ngini = 0.535\nsamples = 70\nvalue = [0, 0, 37, 30, 0, 3, 0]"] ;
630 -> 694 ;
695 [label="X[8] <= 170.0\ngini = 0.153\nsamples = 24\nvalue = [0, 0, 22, 2, 0, 0, 0]"] ;
694 -> 695 ;
696 [label="gini = 0.0\nsamples = 22\nvalue = [0, 0, 22, 0, 0, 0, 0]"] ;
695 -> 696 ;
697 [label="gini = 0.0\nsamples = 2\nvalue = [0, 0, 0, 2, 0, 0, 0]"] ;
695 -> 697 ;
698 [label="X[3] <= 177.0\ngini = 0.519\nsamples = 46\nvalue = [0, 0, 15, 28, 0, 3, 0]"] ;
694 -> 698 ;
699 [label="X[1] <= 100.0\ngini = 0.43\nsamples = 16\nvalue = [0, 0, 11, 5, 0, 0, 0]"] ;
698 -> 699 ;
700 [label="X[2] <= 13.0\ngini = 0.32\nsamples = 5\nvalue = [0, 0, 1, 4, 0, 0, 0]"] ;
699 -> 700 ;
701 [label="gini = 0.0\nsamples = 1\nvalue = [0, 0, 1, 0, 0, 0, 0]"] ;
700 -> 701 ;
702 [label="gini = 0.0\nsamples = 4\nvalue = [0, 0, 0, 4, 0, 0, 0]"] ;
700 -> 702 ;
703 [label="X[9] <= 422.5\ngini = 0.165\nsamples = 11\nvalue = [0, 0, 10, 1, 0, 0, 0]"] ;
699 -> 703 ;
704 [label="gini = 0.0\nsamples = 1\nvalue = [0, 0, 0, 1, 0, 0, 0]"] ;
703 -> 704 ;
705 [label="gini = 0.0\nsamples = 10\nvalue = [0, 0, 10, 0, 0, 0, 0]"] ;
703 -> 705 ;
706 [label="X[5] <= 1289.5\ngini = 0.384\nsamples = 30\nvalue = [0, 0, 4, 23, 0, 3, 0]"] ;
698 -> 706 ;
707 [label="X[5] <= 851.5\ngini = 0.204\nsamples = 26\nvalue = [0, 0, 3, 23, 0, 0, 0]"] ;
706 -> 707 ;
708 [label="gini = 0.0\nsamples = 1\nvalue = [0, 0, 1, 0, 0, 0, 0]"] ;
707 -> 708 ;
709 [label="X[6] <= 212.5\ngini = 0.147\nsamples = 25\nvalue = [0, 0, 2, 23, 0, 0, 0]"] ;
707 -> 709 ;
710 [label="X[0] <= 2337.0\ngini = 0.444\nsamples = 6\nvalue = [0, 0, 2, 4, 0, 0, 0]"] ;
709 -> 710 ;
711 [label="gini = 0.0\nsamples = 2\nvalue = [0, 0, 2, 0, 0, 0, 0]"] ;
710 -> 711 ;
712 [label="gini = 0.0\nsamples = 4\nvalue = [0, 0, 0, 4, 0, 0, 0]"] ;
710 -> 712 ;
713 [label="gini = 0.0\nsamples = 19\nvalue = [0, 0, 0, 19, 0, 0, 0]"] ;
709 -> 713 ;
714 [label="X[6] <= 198.0\ngini = 0.375\nsamples = 4\nvalue = [0, 0, 1, 0, 0, 3, 0]"] ;
706 -> 714 ;
715 [label="gini = 0.0\nsamples = 1\nvalue = [0, 0, 1, 0, 0, 0, 0]"] ;
714 -> 715 ;
716 [label="gini = 0.0\nsamples = 3\nvalue = [0, 0, 0, 0, 0, 3, 0]"] ;
714 -> 716 ;
717 [label="X[23] <= 0.5\ngini = 0.195\nsamples = 139\nvalue = [0, 0, 13, 124, 0, 2, 0]"] ;
629 -> 717 ;
718 [label="X[1] <= 294.5\ngini = 0.115\nsamples = 132\nvalue = [0, 0, 6, 124, 0, 2, 0]"] ;
717 -> 718 ;
719 [label="X[1] <= 59.0\ngini = 0.075\nsamples = 129\nvalue = [0, 0, 5, 124, 0, 0, 0]"] ;
718 -> 719 ;
720 [label="X[9] <= 927.5\ngini = 0.5\nsamples = 6\nvalue = [0, 0, 3, 3, 0, 0, 0]"] ;
719 -> 720 ;
721 [label="gini = 0.0\nsamples = 3\nvalue = [0, 0, 3, 0, 0, 0, 0]"] ;
720 -> 721 ;
722 [label="gini = 0.0\nsamples = 3\nvalue = [0, 0, 0, 3, 0, 0, 0]"] ;
720 -> 722 ;
723 [label="X[9] <= 375.5\ngini = 0.032\nsamples = 123\nvalue = [0, 0, 2, 121, 0, 0, 0]"] ;
719 -> 723 ;
724 [label="gini = 0.0\nsamples = 1\nvalue = [0, 0, 1, 0, 0, 0, 0]"] ;
723 -> 724 ;
725 [label="X[4] <= 16.5\ngini = 0.016\nsamples = 122\nvalue = [0, 0, 1, 121, 0, 0, 0]"] ;
723 -> 725 ;
726 [label="X[9] <= 743.5\ngini = 0.165\nsamples = 11\nvalue = [0, 0, 1, 10, 0, 0, 0]"] ;
725 -> 726 ;
727 [label="gini = 0.0\nsamples = 1\nvalue = [0, 0, 1, 0, 0, 0, 0]"] ;
726 -> 727 ;
728 [label="gini = 0.0\nsamples = 10\nvalue = [0, 0, 0, 10, 0, 0, 0]"] ;
726 -> 728 ;
729 [label="gini = 0.0\nsamples = 111\nvalue = [0, 0, 0, 111, 0, 0, 0]"] ;
725 -> 729 ;
730 [label="X[0] <= 2335.0\ngini = 0.444\nsamples = 3\nvalue = [0, 0, 1, 0, 0, 2, 0]"] ;
718 -> 730 ;
731 [label="gini = 0.0\nsamples = 1\nvalue = [0, 0, 1, 0, 0, 0, 0]"] ;
730 -> 731 ;
732 [label="gini = 0.0\nsamples = 2\nvalue = [0, 0, 0, 0, 0, 2, 0]"] ;
730 -> 732 ;
733 [label="gini = 0.0\nsamples = 7\nvalue = [0, 0, 7, 0, 0, 0, 0]"] ;
717 -> 733 ;
734 [label="X[0] <= 2021.0\ngini = 0.159\nsamples = 752\nvalue = [0, 0, 61, 687, 0, 4, 0]"] ;
460 -> 734 ;
735 [label="gini = 0.0\nsamples = 11\nvalue = [0, 0, 11, 0, 0, 0, 0]"] ;
734 -> 735 ;
736 [label="X[5] <= 1449.5\ngini = 0.136\nsamples = 741\nvalue = [0, 0, 50, 687, 0, 4, 0]"] ;
734 -> 736 ;
737 [label="X[12] <= 0.5\ngini = 0.108\nsamples = 719\nvalue = [0, 0, 37, 678, 0, 4, 0]"] ;
736 -> 737 ;
738 [label="X[0] <= 2340.5\ngini = 0.091\nsamples = 712\nvalue = [0, 0, 32, 678, 0, 2, 0]"] ;
737 -> 738 ;
739 [label="X[5] <= 360.5\ngini = 0.056\nsamples = 662\nvalue = [0, 0, 17, 643, 0, 2, 0]"] ;
738 -> 739 ;
740 [label="X[3] <= 222.0\ngini = 0.372\nsamples = 35\nvalue = [0, 0, 6, 27, 0, 2, 0]"] ;
739 -> 740 ;
741 [label="X[2] <= 21.5\ngini = 0.19\nsamples = 29\nvalue = [0, 0, 2, 26, 0, 1, 0]"] ;
740 -> 741 ;
742 [label="X[9] <= 1335.5\ngini = 0.611\nsamples = 6\nvalue = [0, 0, 2, 3, 0, 1, 0]"] ;
741 -> 742 ;
743 [label="X[8] <= 82.5\ngini = 0.444\nsamples = 3\nvalue = [0, 0, 2, 0, 0, 1, 0]"] ;
742 -> 743 ;
744 [label="gini = 0.0\nsamples = 2\nvalue = [0, 0, 2, 0, 0, 0, 0]"] ;
743 -> 744 ;
745 [label="gini = 0.0\nsamples = 1\nvalue = [0, 0, 0, 0, 0, 1, 0]"] ;
743 -> 745 ;
746 [label="gini = 0.0\nsamples = 3\nvalue = [0, 0, 0, 3, 0, 0, 0]"] ;
742 -> 746 ;
747 [label="gini = 0.0\nsamples = 23\nvalue = [0, 0, 0, 23, 0, 0, 0]"] ;
741 -> 747 ;
748 [label="X[8] <= 74.0\ngini = 0.5\nsamples = 6\nvalue = [0, 0, 4, 1, 0, 1, 0]"] ;
740 -> 748 ;
749 [label="gini = 0.0\nsamples = 4\nvalue = [0, 0, 4, 0, 0, 0, 0]"] ;
748 -> 749 ;
750 [label="X[1] <= 120.0\ngini = 0.5\nsamples = 2\nvalue = [0, 0, 0, 1, 0, 1, 0]"] ;
748 -> 750 ;
751 [label="gini = 0.0\nsamples = 1\nvalue = [0, 0, 0, 0, 0, 1, 0]"] ;
750 -> 751 ;
752 [label="gini = 0.0\nsamples = 1\nvalue = [0, 0, 0, 1, 0, 0, 0]"] ;
750 -> 752 ;
753 [label="X[5] <= 1149.5\ngini = 0.034\nsamples = 627\nvalue = [0, 0, 11, 616, 0, 0, 0]"] ;
739 -> 753 ;
754 [label="X[0] <= 2069.5\ngini = 0.009\nsamples = 461\nvalue = [0, 0, 2, 459, 0, 0, 0]"] ;
753 -> 754 ;
755 [label="X[9] <= 612.5\ngini = 0.278\nsamples = 6\nvalue = [0, 0, 1, 5, 0, 0, 0]"] ;
754 -> 755 ;
756 [label="gini = 0.0\nsamples = 5\nvalue = [0, 0, 0, 5, 0, 0, 0]"] ;
755 -> 756 ;
757 [label="gini = 0.0\nsamples = 1\nvalue = [0, 0, 1, 0, 0, 0, 0]"] ;
755 -> 757 ;
758 [label="X[4] <= 11.5\ngini = 0.004\nsamples = 455\nvalue = [0, 0, 1, 454, 0, 0, 0]"] ;
754 -> 758 ;
759 [label="X[0] <= 2310.0\ngini = 0.042\nsamples = 47\nvalue = [0, 0, 1, 46, 0, 0, 0]"] ;
758 -> 759 ;
760 [label="gini = 0.0\nsamples = 46\nvalue = [0, 0, 0, 46, 0, 0, 0]"] ;
759 -> 760 ;
761 [label="gini = 0.0\nsamples = 1\nvalue = [0, 0, 1, 0, 0, 0, 0]"] ;
759 -> 761 ;
762 [label="gini = 0.0\nsamples = 408\nvalue = [0, 0, 0, 408, 0, 0, 0]"] ;
758 -> 762 ;
763 [label="X[0] <= 2313.5\ngini = 0.103\nsamples = 166\nvalue = [0, 0, 9, 157, 0, 0, 0]"] ;
753 -> 763 ;
764 [label="X[9] <= 389.0\ngini = 0.071\nsamples = 162\nvalue = [0, 0, 6, 156, 0, 0, 0]"] ;
763 -> 764 ;
765 [label="X[7] <= 220.5\ngini = 0.444\nsamples = 3\nvalue = [0, 0, 2, 1, 0, 0, 0]"] ;
764 -> 765 ;
766 [label="gini = 0.0\nsamples = 2\nvalue = [0, 0, 2, 0, 0, 0, 0]"] ;
765 -> 766 ;
767 [label="gini = 0.0\nsamples = 1\nvalue = [0, 0, 0, 1, 0, 0, 0]"] ;
765 -> 767 ;
768 [label="X[5] <= 1151.5\ngini = 0.049\nsamples = 159\nvalue = [0, 0, 4, 155, 0, 0, 0]"] ;
764 -> 768 ;
769 [label="gini = 0.0\nsamples = 1\nvalue = [0, 0, 1, 0, 0, 0, 0]"] ;
768 -> 769 ;
770 [label="X[9] <= 676.5\ngini = 0.037\nsamples = 158\nvalue = [0, 0, 3, 155, 0, 0, 0]"] ;
768 -> 770 ;
771 [label="X[0] <= 2280.5\ngini = 0.17\nsamples = 32\nvalue = [0, 0, 3, 29, 0, 0, 0]"] ;
770 -> 771 ;
772 [label="gini = 0.0\nsamples = 28\nvalue = [0, 0, 0, 28, 0, 0, 0]"] ;
771 -> 772 ;
773 [label="X[5] <= 1191.5\ngini = 0.375\nsamples = 4\nvalue = [0, 0, 3, 1, 0, 0, 0]"] ;
771 -> 773 ;
774 [label="gini = 0.0\nsamples = 1\nvalue = [0, 0, 0, 1, 0, 0, 0]"] ;
773 -> 774 ;
775 [label="gini = 0.0\nsamples = 3\nvalue = [0, 0, 3, 0, 0, 0, 0]"] ;
773 -> 775 ;
776 [label="gini = 0.0\nsamples = 126\nvalue = [0, 0, 0, 126, 0, 0, 0]"] ;
770 -> 776 ;
777 [label="X[3] <= 285.0\ngini = 0.375\nsamples = 4\nvalue = [0, 0, 3, 1, 0, 0, 0]"] ;
763 -> 777 ;
778 [label="gini = 0.0\nsamples = 3\nvalue = [0, 0, 3, 0, 0, 0, 0]"] ;
777 -> 778 ;
779 [label="gini = 0.0\nsamples = 1\nvalue = [0, 0, 0, 1, 0, 0, 0]"] ;
777 -> 779 ;
780 [label="X[9] <= 1250.5\ngini = 0.42\nsamples = 50\nvalue = [0, 0, 15, 35, 0, 0, 0]"] ;
738 -> 780 ;
781 [label="X[7] <= 178.0\ngini = 0.208\nsamples = 17\nvalue = [0, 0, 15, 2, 0, 0, 0]"] ;
780 -> 781 ;
782 [label="gini = 0.0\nsamples = 2\nvalue = [0, 0, 0, 2, 0, 0, 0]"] ;
781 -> 782 ;
783 [label="gini = 0.0\nsamples = 15\nvalue = [0, 0, 15, 0, 0, 0, 0]"] ;
781 -> 783 ;
784 [label="gini = 0.0\nsamples = 33\nvalue = [0, 0, 0, 33, 0, 0, 0]"] ;
780 -> 784 ;
785 [label="X[9] <= 528.0\ngini = 0.408\nsamples = 7\nvalue = [0, 0, 5, 0, 0, 2, 0]"] ;
737 -> 785 ;
786 [label="gini = 0.0\nsamples = 2\nvalue = [0, 0, 0, 0, 0, 2, 0]"] ;
785 -> 786 ;
787 [label="gini = 0.0\nsamples = 5\nvalue = [0, 0, 5, 0, 0, 0, 0]"] ;
785 -> 787 ;
788 [label="X[0] <= 2185.0\ngini = 0.483\nsamples = 22\nvalue = [0, 0, 13, 9, 0, 0, 0]"] ;
736 -> 788 ;
789 [label="gini = 0.0\nsamples = 6\nvalue = [0, 0, 0, 6, 0, 0, 0]"] ;
788 -> 789 ;
790 [label="X[2] <= 18.5\ngini = 0.305\nsamples = 16\nvalue = [0, 0, 13, 3, 0, 0, 0]"] ;
788 -> 790 ;
791 [label="gini = 0.0\nsamples = 2\nvalue = [0, 0, 0, 2, 0, 0, 0]"] ;
790 -> 791 ;
792 [label="X[9] <= 822.0\ngini = 0.133\nsamples = 14\nvalue = [0, 0, 13, 1, 0, 0, 0]"] ;
790 -> 792 ;
793 [label="gini = 0.0\nsamples = 13\nvalue = [0, 0, 13, 0, 0, 0, 0]"] ;
792 -> 793 ;
794 [label="gini = 0.0\nsamples = 1\nvalue = [0, 0, 0, 1, 0, 0, 0]"] ;
792 -> 794 ;
795 [label="X[10] <= 0.5\ngini = 0.664\nsamples = 2901\nvalue = [11, 229, 1083, 126, 209, 1243, 0]"] ;
1 -> 795 ;
796 [label="X[17] <= 0.5\ngini = 0.617\nsamples = 2685\nvalue = [9, 94, 1083, 126, 130, 1243, 0]"] ;
795 -> 796 ;
797 [label="X[23] <= 0.5\ngini = 0.614\nsamples = 2243\nvalue = [8, 92, 714, 126, 123, 1180, 0]"] ;
796 -> 797 ;
798 [label="X[3] <= 76.0\ngini = 0.681\nsamples = 1368\nvalue = [3, 66, 523, 119, 118, 539, 0]"] ;
797 -> 798 ;
799 [label="X[12] <= 0.5\ngini = 0.646\nsamples = 423\nvalue = [3, 18, 71, 62, 40, 229, 0]"] ;
798 -> 799 ;
800 [label="X[3] <= 15.0\ngini = 0.611\nsamples = 121\nvalue = [0, 1, 20, 62, 0, 38, 0]"] ;
799 -> 800 ;
801 [label="X[29] <= 0.5\ngini = 0.283\nsamples = 62\nvalue = [0, 0, 6, 52, 0, 4, 0]"] ;
800 -> 801 ;
802 [label="X[9] <= 331.0\ngini = 0.191\nsamples = 57\nvalue = [0, 0, 5, 51, 0, 1, 0]"] ;
801 -> 802 ;
803 [label="gini = 0.0\nsamples = 1\nvalue = [0, 0, 1, 0, 0, 0, 0]"] ;
802 -> 803 ;
804 [label="X[9] <= 1610.0\ngini = 0.165\nsamples = 56\nvalue = [0, 0, 4, 51, 0, 1, 0]"] ;
802 -> 804 ;
805 [label="X[7] <= 185.5\ngini = 0.137\nsamples = 55\nvalue = [0, 0, 3, 51, 0, 1, 0]"] ;
804 -> 805 ;
806 [label="gini = 0.0\nsamples = 1\nvalue = [0, 0, 1, 0, 0, 0, 0]"] ;
805 -> 806 ;
807 [label="X[5] <= 893.0\ngini = 0.106\nsamples = 54\nvalue = [0, 0, 2, 51, 0, 1, 0]"] ;
805 -> 807 ;
808 [label="X[5] <= 777.0\ngini = 0.042\nsamples = 47\nvalue = [0, 0, 0, 46, 0, 1, 0]"] ;
807 -> 808 ;
809 [label="gini = 0.0\nsamples = 41\nvalue = [0, 0, 0, 41, 0, 0, 0]"] ;
808 -> 809 ;
810 [label="X[5] <= 794.0\ngini = 0.278\nsamples = 6\nvalue = [0, 0, 0, 5, 0, 1, 0]"] ;
808 -> 810 ;
811 [label="gini = 0.0\nsamples = 1\nvalue = [0, 0, 0, 0, 0, 1, 0]"] ;
810 -> 811 ;
812 [label="gini = 0.0\nsamples = 5\nvalue = [0, 0, 0, 5, 0, 0, 0]"] ;
810 -> 812 ;
813 [label="X[0] <= 2394.0\ngini = 0.408\nsamples = 7\nvalue = [0, 0, 2, 5, 0, 0, 0]"] ;
807 -> 813 ;
814 [label="gini = 0.0\nsamples = 5\nvalue = [0, 0, 0, 5, 0, 0, 0]"] ;
813 -> 814 ;
815 [label="gini = 0.0\nsamples = 2\nvalue = [0, 0, 2, 0, 0, 0, 0]"] ;
813 -> 815 ;
816 [label="gini = 0.0\nsamples = 1\nvalue = [0, 0, 1, 0, 0, 0, 0]"] ;
804 -> 816 ;
817 [label="X[7] <= 224.5\ngini = 0.56\nsamples = 5\nvalue = [0, 0, 1, 1, 0, 3, 0]"] ;
801 -> 817 ;
818 [label="gini = 0.0\nsamples = 3\nvalue = [0, 0, 0, 0, 0, 3, 0]"] ;
817 -> 818 ;
819 [label="X[7] <= 234.0\ngini = 0.5\nsamples = 2\nvalue = [0, 0, 1, 1, 0, 0, 0]"] ;
817 -> 819 ;
820 [label="gini = 0.0\nsamples = 1\nvalue = [0, 0, 0, 1, 0, 0, 0]"] ;
819 -> 820 ;
821 [label="gini = 0.0\nsamples = 1\nvalue = [0, 0, 1, 0, 0, 0, 0]"] ;
819 -> 821 ;
822 [label="X[8] <= 119.5\ngini = 0.583\nsamples = 59\nvalue = [0, 1, 14, 10, 0, 34, 0]"] ;
800 -> 822 ;
823 [label="X[18] <= 0.5\ngini = 0.586\nsamples = 18\nvalue = [0, 0, 10, 5, 0, 3, 0]"] ;
822 -> 823 ;
824 [label="X[5] <= 439.0\ngini = 0.165\nsamples = 11\nvalue = [0, 0, 10, 1, 0, 0, 0]"] ;
823 -> 824 ;
825 [label="X[3] <= 48.5\ngini = 0.5\nsamples = 2\nvalue = [0, 0, 1, 1, 0, 0, 0]"] ;
824 -> 825 ;
826 [label="gini = 0.0\nsamples = 1\nvalue = [0, 0, 0, 1, 0, 0, 0]"] ;
825 -> 826 ;
827 [label="gini = 0.0\nsamples = 1\nvalue = [0, 0, 1, 0, 0, 0, 0]"] ;
825 -> 827 ;
828 [label="gini = 0.0\nsamples = 9\nvalue = [0, 0, 9, 0, 0, 0, 0]"] ;
824 -> 828 ;
829 [label="X[2] <= 20.0\ngini = 0.49\nsamples = 7\nvalue = [0, 0, 0, 4, 0, 3, 0]"] ;
823 -> 829 ;
830 [label="gini = 0.0\nsamples = 4\nvalue = [0, 0, 0, 4, 0, 0, 0]"] ;
829 -> 830 ;
831 [label="gini = 0.0\nsamples = 3\nvalue = [0, 0, 0, 0, 0, 3, 0]"] ;
829 -> 831 ;
832 [label="X[4] <= 14.5\ngini = 0.403\nsamples = 41\nvalue = [0, 1, 4, 5, 0, 31, 0]"] ;
822 -> 832 ;
833 [label="X[8] <= 171.0\ngini = 0.348\nsamples = 39\nvalue = [0, 1, 2, 5, 0, 31, 0]"] ;
832 -> 833 ;
834 [label="X[8] <= 134.5\ngini = 0.279\nsamples = 37\nvalue = [0, 0, 1, 5, 0, 31, 0]"] ;
833 -> 834 ;
835 [label="X[9] <= 1324.5\ngini = 0.524\nsamples = 15\nvalue = [0, 0, 1, 5, 0, 9, 0]"] ;
834 -> 835 ;
836 [label="X[5] <= 375.5\ngini = 0.571\nsamples = 7\nvalue = [0, 0, 1, 4, 0, 2, 0]"] ;
835 -> 836 ;
837 [label="gini = 0.0\nsamples = 2\nvalue = [0, 0, 0, 0, 0, 2, 0]"] ;
836 -> 837 ;
838 [label="X[29] <= 0.5\ngini = 0.32\nsamples = 5\nvalue = [0, 0, 1, 4, 0, 0, 0]"] ;
836 -> 838 ;
839 [label="gini = 0.0\nsamples = 4\nvalue = [0, 0, 0, 4, 0, 0, 0]"] ;
838 -> 839 ;
840 [label="gini = 0.0\nsamples = 1\nvalue = [0, 0, 1, 0, 0, 0, 0]"] ;
838 -> 840 ;
841 [label="X[6] <= 223.5\ngini = 0.219\nsamples = 8\nvalue = [0, 0, 0, 1, 0, 7, 0]"] ;
835 -> 841 ;
842 [label="gini = 0.0\nsamples = 1\nvalue = [0, 0, 0, 1, 0, 0, 0]"] ;
841 -> 842 ;
843 [label="gini = 0.0\nsamples = 7\nvalue = [0, 0, 0, 0, 0, 7, 0]"] ;
841 -> 843 ;
844 [label="gini = 0.0\nsamples = 22\nvalue = [0, 0, 0, 0, 0, 22, 0]"] ;
834 -> 844 ;
845 [label="X[3] <= 63.5\ngini = 0.5\nsamples = 2\nvalue = [0, 1, 1, 0, 0, 0, 0]"] ;
833 -> 845 ;
846 [label="gini = 0.0\nsamples = 1\nvalue = [0, 0, 1, 0, 0, 0, 0]"] ;
845 -> 846 ;
847 [label="gini = 0.0\nsamples = 1\nvalue = [0, 1, 0, 0, 0, 0, 0]"] ;
845 -> 847 ;
848 [label="gini = 0.0\nsamples = 2\nvalue = [0, 0, 2, 0, 0, 0, 0]"] ;
832 -> 848 ;
849 [label="X[0] <= 2587.5\ngini = 0.551\nsamples = 302\nvalue = [3, 17, 51, 0, 40, 191, 0]"] ;
799 -> 849 ;
850 [label="X[16] <= 0.5\ngini = 0.372\nsamples = 199\nvalue = [0, 6, 33, 0, 6, 154, 0]"] ;
849 -> 850 ;
851 [label="X[0] <= 2537.0\ngini = 0.318\nsamples = 184\nvalue = [0, 5, 23, 0, 6, 150, 0]"] ;
850 -> 851 ;
852 [label="X[4] <= 4.5\ngini = 0.175\nsamples = 115\nvalue = [0, 1, 10, 0, 0, 104, 0]"] ;
851 -> 852 ;
853 [label="X[8] <= 190.0\ngini = 0.043\nsamples = 90\nvalue = [0, 0, 2, 0, 0, 88, 0]"] ;
852 -> 853 ;
854 [label="X[8] <= 175.5\ngini = 0.022\nsamples = 88\nvalue = [0, 0, 1, 0, 0, 87, 0]"] ;
853 -> 854 ;
855 [label="gini = 0.0\nsamples = 79\nvalue = [0, 0, 0, 0, 0, 79, 0]"] ;
854 -> 855 ;
856 [label="X[8] <= 178.0\ngini = 0.198\nsamples = 9\nvalue = [0, 0, 1, 0, 0, 8, 0]"] ;
854 -> 856 ;
857 [label="X[7] <= 244.5\ngini = 0.5\nsamples = 2\nvalue = [0, 0, 1, 0, 0, 1, 0]"] ;
856 -> 857 ;
858 [label="gini = 0.0\nsamples = 1\nvalue = [0, 0, 1, 0, 0, 0, 0]"] ;
857 -> 858 ;
859 [label="gini = 0.0\nsamples = 1\nvalue = [0, 0, 0, 0, 0, 1, 0]"] ;
857 -> 859 ;
860 [label="gini = 0.0\nsamples = 7\nvalue = [0, 0, 0, 0, 0, 7, 0]"] ;
856 -> 860 ;
861 [label="X[6] <= 186.0\ngini = 0.5\nsamples = 2\nvalue = [0, 0, 1, 0, 0, 1, 0]"] ;
853 -> 861 ;
862 [label="gini = 0.0\nsamples = 1\nvalue = [0, 0, 0, 0, 0, 1, 0]"] ;
861 -> 862 ;
863 [label="gini = 0.0\nsamples = 1\nvalue = [0, 0, 1, 0, 0, 0, 0]"] ;
861 -> 863 ;
864 [label="X[7] <= 234.5\ngini = 0.486\nsamples = 25\nvalue = [0, 1, 8, 0, 0, 16, 0]"] ;
852 -> 864 ;
865 [label="X[24] <= 0.5\ngini = 0.227\nsamples = 16\nvalue = [0, 1, 1, 0, 0, 14, 0]"] ;
864 -> 865 ;
866 [label="X[3] <= 63.5\ngini = 0.124\nsamples = 15\nvalue = [0, 0, 1, 0, 0, 14, 0]"] ;
865 -> 866 ;
867 [label="gini = 0.0\nsamples = 14\nvalue = [0, 0, 0, 0, 0, 14, 0]"] ;
866 -> 867 ;
868 [label="gini = 0.0\nsamples = 1\nvalue = [0, 0, 1, 0, 0, 0, 0]"] ;
866 -> 868 ;
869 [label="gini = 0.0\nsamples = 1\nvalue = [0, 1, 0, 0, 0, 0, 0]"] ;
865 -> 869 ;
870 [label="X[4] <= 17.5\ngini = 0.346\nsamples = 9\nvalue = [0, 0, 7, 0, 0, 2, 0]"] ;
864 -> 870 ;
871 [label="X[9] <= 1175.5\ngini = 0.219\nsamples = 8\nvalue = [0, 0, 7, 0, 0, 1, 0]"] ;
870 -> 871 ;
872 [label="gini = 0.0\nsamples = 6\nvalue = [0, 0, 6, 0, 0, 0, 0]"] ;
871 -> 872 ;
873 [label="X[5] <= 889.0\ngini = 0.5\nsamples = 2\nvalue = [0, 0, 1, 0, 0, 1, 0]"] ;
871 -> 873 ;
874 [label="gini = 0.0\nsamples = 1\nvalue = [0, 0, 1, 0, 0, 0, 0]"] ;
873 -> 874 ;
875 [label="gini = 0.0\nsamples = 1\nvalue = [0, 0, 0, 0, 0, 1, 0]"] ;
873 -> 875 ;
876 [label="gini = 0.0\nsamples = 1\nvalue = [0, 0, 0, 0, 0, 1, 0]"] ;
870 -> 876 ;
877 [label="X[7] <= 236.0\ngini = 0.509\nsamples = 69\nvalue = [0, 4, 13, 0, 6, 46, 0]"] ;
851 -> 877 ;
878 [label="X[1] <= 10.0\ngini = 0.365\nsamples = 56\nvalue = [0, 3, 6, 0, 3, 44, 0]"] ;
877 -> 878 ;
879 [label="gini = 0.0\nsamples = 2\nvalue = [0, 0, 0, 0, 2, 0, 0]"] ;
878 -> 879 ;
880 [label="X[9] <= 1262.5\ngini = 0.32\nsamples = 54\nvalue = [0, 3, 6, 0, 1, 44, 0]"] ;
878 -> 880 ;
881 [label="X[5] <= 996.0\ngini = 0.526\nsamples = 21\nvalue = [0, 2, 6, 0, 0, 13, 0]"] ;
880 -> 881 ;
882 [label="gini = 0.0\nsamples = 10\nvalue = [0, 0, 0, 0, 0, 10, 0]"] ;
881 -> 882 ;
883 [label="X[4] <= 1.0\ngini = 0.595\nsamples = 11\nvalue = [0, 2, 6, 0, 0, 3, 0]"] ;
881 -> 883 ;
884 [label="gini = 0.0\nsamples = 5\nvalue = [0, 0, 5, 0, 0, 0, 0]"] ;
883 -> 884 ;
885 [label="X[0] <= 2542.5\ngini = 0.611\nsamples = 6\nvalue = [0, 2, 1, 0, 0, 3, 0]"] ;
883 -> 885 ;
886 [label="gini = 0.0\nsamples = 1\nvalue = [0, 0, 1, 0, 0, 0, 0]"] ;
885 -> 886 ;
887 [label="X[46] <= 0.5\ngini = 0.48\nsamples = 5\nvalue = [0, 2, 0, 0, 0, 3, 0]"] ;
885 -> 887 ;
888 [label="X[1] <= 176.5\ngini = 0.444\nsamples = 3\nvalue = [0, 2, 0, 0, 0, 1, 0]"] ;
887 -> 888 ;
889 [label="gini = 0.0\nsamples = 1\nvalue = [0, 0, 0, 0, 0, 1, 0]"] ;
888 -> 889 ;
890 [label="gini = 0.0\nsamples = 2\nvalue = [0, 2, 0, 0, 0, 0, 0]"] ;
888 -> 890 ;
891 [label="gini = 0.0\nsamples = 2\nvalue = [0, 0, 0, 0, 0, 2, 0]"] ;
887 -> 891 ;
892 [label="X[4] <= 5.5\ngini = 0.116\nsamples = 33\nvalue = [0, 1, 0, 0, 1, 31, 0]"] ;
880 -> 892 ;
893 [label="gini = 0.0\nsamples = 28\nvalue = [0, 0, 0, 0, 0, 28, 0]"] ;
892 -> 893 ;
894 [label="X[2] <= 12.0\ngini = 0.56\nsamples = 5\nvalue = [0, 1, 0, 0, 1, 3, 0]"] ;
892 -> 894 ;
895 [label="X[5] <= 1312.5\ngini = 0.5\nsamples = 2\nvalue = [0, 1, 0, 0, 1, 0, 0]"] ;
894 -> 895 ;
896 [label="gini = 0.0\nsamples = 1\nvalue = [0, 1, 0, 0, 0, 0, 0]"] ;
895 -> 896 ;
897 [label="gini = 0.0\nsamples = 1\nvalue = [0, 0, 0, 0, 1, 0, 0]"] ;
895 -> 897 ;
898 [label="gini = 0.0\nsamples = 3\nvalue = [0, 0, 0, 0, 0, 3, 0]"] ;
894 -> 898 ;
899 [label="X[9] <= 1175.0\ngini = 0.627\nsamples = 13\nvalue = [0, 1, 7, 0, 3, 2, 0]"] ;
877 -> 899 ;
900 [label="gini = 0.0\nsamples = 2\nvalue = [0, 0, 0, 0, 2, 0, 0]"] ;
899 -> 900 ;
901 [label="X[1] <= 261.5\ngini = 0.545\nsamples = 11\nvalue = [0, 1, 7, 0, 1, 2, 0]"] ;
899 -> 901 ;
902 [label="X[9] <= 2259.5\ngini = 0.46\nsamples = 10\nvalue = [0, 1, 7, 0, 0, 2, 0]"] ;
901 -> 902 ;
903 [label="X[0] <= 2552.0\ngini = 0.346\nsamples = 9\nvalue = [0, 0, 7, 0, 0, 2, 0]"] ;
902 -> 903 ;
904 [label="X[30] <= 0.5\ngini = 0.5\nsamples = 4\nvalue = [0, 0, 2, 0, 0, 2, 0]"] ;
903 -> 904 ;
905 [label="gini = 0.0\nsamples = 2\nvalue = [0, 0, 2, 0, 0, 0, 0]"] ;
904 -> 905 ;
906 [label="gini = 0.0\nsamples = 2\nvalue = [0, 0, 0, 0, 0, 2, 0]"] ;
904 -> 906 ;
907 [label="gini = 0.0\nsamples = 5\nvalue = [0, 0, 5, 0, 0, 0, 0]"] ;
903 -> 907 ;
908 [label="gini = 0.0\nsamples = 1\nvalue = [0, 1, 0, 0, 0, 0, 0]"] ;
902 -> 908 ;
909 [label="gini = 0.0\nsamples = 1\nvalue = [0, 0, 0, 0, 1, 0, 0]"] ;
901 -> 909 ;
910 [label="X[0] <= 2388.5\ngini = 0.48\nsamples = 15\nvalue = [0, 1, 10, 0, 0, 4, 0]"] ;
850 -> 910 ;
911 [label="gini = 0.0\nsamples = 3\nvalue = [0, 0, 0, 0, 0, 3, 0]"] ;
910 -> 911 ;
912 [label="X[0] <= 2538.5\ngini = 0.292\nsamples = 12\nvalue = [0, 1, 10, 0, 0, 1, 0]"] ;
910 -> 912 ;
913 [label="gini = 0.0\nsamples = 7\nvalue = [0, 0, 7, 0, 0, 0, 0]"] ;
912 -> 913 ;
914 [label="X[4] <= 6.5\ngini = 0.56\nsamples = 5\nvalue = [0, 1, 3, 0, 0, 1, 0]"] ;
912 -> 914 ;
915 [label="X[8] <= 180.0\ngini = 0.5\nsamples = 2\nvalue = [0, 1, 0, 0, 0, 1, 0]"] ;
914 -> 915 ;
916 [label="gini = 0.0\nsamples = 1\nvalue = [0, 0, 0, 0, 0, 1, 0]"] ;
915 -> 916 ;
917 [label="gini = 0.0\nsamples = 1\nvalue = [0, 1, 0, 0, 0, 0, 0]"] ;
915 -> 917 ;
918 [label="gini = 0.0\nsamples = 3\nvalue = [0, 0, 3, 0, 0, 0, 0]"] ;
914 -> 918 ;
919 [label="X[5] <= 1369.0\ngini = 0.719\nsamples = 103\nvalue = [3, 11, 18, 0, 34, 37, 0]"] ;
849 -> 919 ;
920 [label="X[7] <= 193.5\ngini = 0.516\nsamples = 42\nvalue = [0, 5, 3, 0, 28, 6, 0]"] ;
919 -> 920 ;
921 [label="gini = 0.0\nsamples = 5\nvalue = [0, 0, 0, 0, 0, 5, 0]"] ;
920 -> 921 ;
922 [label="X[5] <= 1160.5\ngini = 0.402\nsamples = 37\nvalue = [0, 5, 3, 0, 28, 1, 0]"] ;
920 -> 922 ;
923 [label="X[8] <= 151.0\ngini = 0.645\nsamples = 11\nvalue = [0, 5, 3, 0, 3, 0, 0]"] ;
922 -> 923 ;
924 [label="X[33] <= 0.5\ngini = 0.469\nsamples = 8\nvalue = [0, 5, 0, 0, 3, 0, 0]"] ;
923 -> 924 ;
925 [label="gini = 0.0\nsamples = 5\nvalue = [0, 5, 0, 0, 0, 0, 0]"] ;
924 -> 925 ;
926 [label="gini = 0.0\nsamples = 3\nvalue = [0, 0, 0, 0, 3, 0, 0]"] ;
924 -> 926 ;
927 [label="gini = 0.0\nsamples = 3\nvalue = [0, 0, 3, 0, 0, 0, 0]"] ;
923 -> 927 ;
928 [label="X[4] <= 21.5\ngini = 0.074\nsamples = 26\nvalue = [0, 0, 0, 0, 25, 1, 0]"] ;
922 -> 928 ;
929 [label="gini = 0.0\nsamples = 25\nvalue = [0, 0, 0, 0, 25, 0, 0]"] ;
928 -> 929 ;
930 [label="gini = 0.0\nsamples = 1\nvalue = [0, 0, 0, 0, 0, 1, 0]"] ;
928 -> 930 ;
931 [label="X[9] <= 1149.5\ngini = 0.66\nsamples = 61\nvalue = [3, 6, 15, 0, 6, 31, 0]"] ;
919 -> 931 ;
932 [label="X[6] <= 189.0\ngini = 0.727\nsamples = 16\nvalue = [2, 6, 2, 0, 5, 1, 0]"] ;
931 -> 932 ;
933 [label="gini = 0.0\nsamples = 5\nvalue = [0, 0, 0, 0, 5, 0, 0]"] ;
932 -> 933 ;
934 [label="X[0] <= 2633.0\ngini = 0.628\nsamples = 11\nvalue = [2, 6, 2, 0, 0, 1, 0]"] ;
932 -> 934 ;
935 [label="X[15] <= 0.5\ngini = 0.625\nsamples = 4\nvalue = [1, 0, 2, 0, 0, 1, 0]"] ;
934 -> 935 ;
936 [label="X[6] <= 213.5\ngini = 0.5\nsamples = 2\nvalue = [1, 0, 0, 0, 0, 1, 0]"] ;
935 -> 936 ;
937 [label="gini = 0.0\nsamples = 1\nvalue = [1, 0, 0, 0, 0, 0, 0]"] ;
936 -> 937 ;
938 [label="gini = 0.0\nsamples = 1\nvalue = [0, 0, 0, 0, 0, 1, 0]"] ;
936 -> 938 ;
939 [label="gini = 0.0\nsamples = 2\nvalue = [0, 0, 2, 0, 0, 0, 0]"] ;
935 -> 939 ;
940 [label="X[46] <= 0.5\ngini = 0.245\nsamples = 7\nvalue = [1, 6, 0, 0, 0, 0, 0]"] ;
934 -> 940 ;
941 [label="gini = 0.0\nsamples = 5\nvalue = [0, 5, 0, 0, 0, 0, 0]"] ;
940 -> 941 ;
942 [label="X[6] <= 211.5\ngini = 0.5\nsamples = 2\nvalue = [1, 1, 0, 0, 0, 0, 0]"] ;
940 -> 942 ;
943 [label="gini = 0.0\nsamples = 1\nvalue = [0, 1, 0, 0, 0, 0, 0]"] ;
942 -> 943 ;
944 [label="gini = 0.0\nsamples = 1\nvalue = [1, 0, 0, 0, 0, 0, 0]"] ;
942 -> 944 ;
945 [label="X[6] <= 238.5\ngini = 0.471\nsamples = 45\nvalue = [1, 0, 13, 0, 1, 30, 0]"] ;
931 -> 945 ;
946 [label="X[24] <= 0.5\ngini = 0.415\nsamples = 41\nvalue = [1, 0, 9, 0, 1, 30, 0]"] ;
945 -> 946 ;
947 [label="X[45] <= 0.5\ngini = 0.35\nsamples = 38\nvalue = [1, 0, 6, 0, 1, 30, 0]"] ;
946 -> 947 ;
948 [label="X[5] <= 2623.5\ngini = 0.292\nsamples = 36\nvalue = [1, 0, 4, 0, 1, 30, 0]"] ;
947 -> 948 ;
949 [label="X[7] <= 253.5\ngini = 0.208\nsamples = 34\nvalue = [0, 0, 4, 0, 0, 30, 0]"] ;
948 -> 949 ;
950 [label="X[2] <= 11.5\ngini = 0.165\nsamples = 33\nvalue = [0, 0, 3, 0, 0, 30, 0]"] ;
949 -> 950 ;
951 [label="X[9] <= 2357.5\ngini = 0.375\nsamples = 12\nvalue = [0, 0, 3, 0, 0, 9, 0]"] ;
950 -> 951 ;
952 [label="X[2] <= 7.5\ngini = 0.48\nsamples = 5\nvalue = [0, 0, 3, 0, 0, 2, 0]"] ;
951 -> 952 ;
953 [label="gini = 0.0\nsamples = 2\nvalue = [0, 0, 2, 0, 0, 0, 0]"] ;
952 -> 953 ;
954 [label="X[0] <= 2605.5\ngini = 0.444\nsamples = 3\nvalue = [0, 0, 1, 0, 0, 2, 0]"] ;
952 -> 954 ;
955 [label="gini = 0.0\nsamples = 1\nvalue = [0, 0, 1, 0, 0, 0, 0]"] ;
954 -> 955 ;
956 [label="gini = 0.0\nsamples = 2\nvalue = [0, 0, 0, 0, 0, 2, 0]"] ;
954 -> 956 ;
957 [label="gini = 0.0\nsamples = 7\nvalue = [0, 0, 0, 0, 0, 7, 0]"] ;
951 -> 957 ;
958 [label="gini = 0.0\nsamples = 21\nvalue = [0, 0, 0, 0, 0, 21, 0]"] ;
950 -> 958 ;
959 [label="gini = 0.0\nsamples = 1\nvalue = [0, 0, 1, 0, 0, 0, 0]"] ;
949 -> 959 ;
960 [label="X[8] <= 141.0\ngini = 0.5\nsamples = 2\nvalue = [1, 0, 0, 0, 1, 0, 0]"] ;
948 -> 960 ;
961 [label="gini = 0.0\nsamples = 1\nvalue = [1, 0, 0, 0, 0, 0, 0]"] ;
960 -> 961 ;
962 [label="gini = 0.0\nsamples = 1\nvalue = [0, 0, 0, 0, 1, 0, 0]"] ;
960 -> 962 ;
963 [label="gini = 0.0\nsamples = 2\nvalue = [0, 0, 2, 0, 0, 0, 0]"] ;
947 -> 963 ;
964 [label="gini = 0.0\nsamples = 3\nvalue = [0, 0, 3, 0, 0, 0, 0]"] ;
946 -> 964 ;
965 [label="gini = 0.0\nsamples = 4\nvalue = [0, 0, 4, 0, 0, 0, 0]"] ;
945 -> 965 ;
966 [label="X[6] <= 187.5\ngini = 0.651\nsamples = 945\nvalue = [0, 48, 452, 57, 78, 310, 0]"] ;
798 -> 966 ;
967 [label="X[1] <= 258.5\ngini = 0.498\nsamples = 147\nvalue = [0, 7, 34, 3, 5, 98, 0]"] ;
966 -> 967 ;
968 [label="X[0] <= 2640.0\ngini = 0.558\nsamples = 30\nvalue = [0, 5, 19, 2, 2, 2, 0]"] ;
967 -> 968 ;
969 [label="X[0] <= 2381.5\ngini = 0.403\nsamples = 25\nvalue = [0, 2, 19, 2, 0, 2, 0]"] ;
968 -> 969 ;
970 [label="X[3] <= 217.0\ngini = 0.5\nsamples = 4\nvalue = [0, 0, 0, 2, 0, 2, 0]"] ;
969 -> 970 ;
971 [label="gini = 0.0\nsamples = 2\nvalue = [0, 0, 0, 0, 0, 2, 0]"] ;
970 -> 971 ;
972 [label="gini = 0.0\nsamples = 2\nvalue = [0, 0, 0, 2, 0, 0, 0]"] ;
970 -> 972 ;
973 [label="X[1] <= 217.5\ngini = 0.172\nsamples = 21\nvalue = [0, 2, 19, 0, 0, 0, 0]"] ;
969 -> 973 ;
974 [label="X[5] <= 1044.5\ngini = 0.5\nsamples = 4\nvalue = [0, 2, 2, 0, 0, 0, 0]"] ;
973 -> 974 ;
975 [label="gini = 0.0\nsamples = 2\nvalue = [0, 0, 2, 0, 0, 0, 0]"] ;
974 -> 975 ;
976 [label="gini = 0.0\nsamples = 2\nvalue = [0, 2, 0, 0, 0, 0, 0]"] ;
974 -> 976 ;
977 [label="gini = 0.0\nsamples = 17\nvalue = [0, 0, 17, 0, 0, 0, 0]"] ;
973 -> 977 ;
978 [label="X[0] <= 2656.5\ngini = 0.48\nsamples = 5\nvalue = [0, 3, 0, 0, 2, 0, 0]"] ;
968 -> 978 ;
979 [label="gini = 0.0\nsamples = 3\nvalue = [0, 3, 0, 0, 0, 0, 0]"] ;
978 -> 979 ;
980 [label="gini = 0.0\nsamples = 2\nvalue = [0, 0, 0, 0, 2, 0, 0]"] ;
978 -> 980 ;
981 [label="X[5] <= 543.5\ngini = 0.309\nsamples = 117\nvalue = [0, 2, 15, 1, 3, 96, 0]"] ;
967 -> 981 ;
982 [label="X[12] <= 0.5\ngini = 0.426\nsamples = 13\nvalue = [0, 0, 9, 0, 0, 4, 0]"] ;
981 -> 982 ;
983 [label="gini = 0.0\nsamples = 8\nvalue = [0, 0, 8, 0, 0, 0, 0]"] ;
982 -> 983 ;
984 [label="X[3] <= 135.0\ngini = 0.32\nsamples = 5\nvalue = [0, 0, 1, 0, 0, 4, 0]"] ;
982 -> 984 ;
985 [label="gini = 0.0\nsamples = 1\nvalue = [0, 0, 1, 0, 0, 0, 0]"] ;
984 -> 985 ;
986 [label="gini = 0.0\nsamples = 4\nvalue = [0, 0, 0, 0, 0, 4, 0]"] ;
984 -> 986 ;
987 [label="X[36] <= 0.5\ngini = 0.213\nsamples = 104\nvalue = [0, 2, 6, 1, 3, 92, 0]"] ;
981 -> 987 ;
988 [label="X[4] <= 180.5\ngini = 0.182\nsamples = 102\nvalue = [0, 2, 6, 1, 1, 92, 0]"] ;
987 -> 988 ;
989 [label="X[4] <= 0.5\ngini = 0.151\nsamples = 100\nvalue = [0, 2, 4, 1, 1, 92, 0]"] ;
988 -> 989 ;
990 [label="gini = 0.0\nsamples = 1\nvalue = [0, 0, 0, 0, 1, 0, 0]"] ;
989 -> 990 ;
991 [label="X[5] <= 2193.0\ngini = 0.134\nsamples = 99\nvalue = [0, 2, 4, 1, 0, 92, 0]"] ;
989 -> 991 ;
992 [label="X[8] <= 154.5\ngini = 0.117\nsamples = 98\nvalue = [0, 1, 4, 1, 0, 92, 0]"] ;
991 -> 992 ;
993 [label="gini = 0.0\nsamples = 1\nvalue = [0, 0, 1, 0, 0, 0, 0]"] ;
992 -> 993 ;
994 [label="X[5] <= 607.5\ngini = 0.099\nsamples = 97\nvalue = [0, 1, 3, 1, 0, 92, 0]"] ;
992 -> 994 ;
995 [label="X[6] <= 158.0\ngini = 0.5\nsamples = 2\nvalue = [0, 1, 0, 0, 0, 1, 0]"] ;
994 -> 995 ;
996 [label="gini = 0.0\nsamples = 1\nvalue = [0, 1, 0, 0, 0, 0, 0]"] ;
995 -> 996 ;
997 [label="gini = 0.0\nsamples = 1\nvalue = [0, 0, 0, 0, 0, 1, 0]"] ;
995 -> 997 ;
998 [label="X[15] <= 0.5\ngini = 0.081\nsamples = 95\nvalue = [0, 0, 3, 1, 0, 91, 0]"] ;
994 -> 998 ;
999 [label="X[0] <= 2378.5\ngini = 0.046\nsamples = 86\nvalue = [0, 0, 1, 1, 0, 84, 0]"] ;
998 -> 999 ;
1000 [label="X[3] <= 277.5\ngini = 0.5\nsamples = 2\nvalue = [0, 0, 0, 1, 0, 1, 0]"] ;
999 -> 1000 ;
1001 [label="gini = 0.0\nsamples = 1\nvalue = [0, 0, 0, 1, 0, 0, 0]"] ;
1000 -> 1001 ;
1002 [label="gini = 0.0\nsamples = 1\nvalue = [0, 0, 0, 0, 0, 1, 0]"] ;
1000 -> 1002 ;
1003 [label="X[4] <= 15.5\ngini = 0.024\nsamples = 84\nvalue = [0, 0, 1, 0, 0, 83, 0]"] ;
999 -> 1003 ;
1004 [label="X[5] <= 1031.0\ngini = 0.32\nsamples = 5\nvalue = [0, 0, 1, 0, 0, 4, 0]"] ;
1003 -> 1004 ;
1005 [label="gini = 0.0\nsamples = 1\nvalue = [0, 0, 1, 0, 0, 0, 0]"] ;
1004 -> 1005 ;
1006 [label="gini = 0.0\nsamples = 4\nvalue = [0, 0, 0, 0, 0, 4, 0]"] ;
1004 -> 1006 ;
1007 [label="gini = 0.0\nsamples = 79\nvalue = [0, 0, 0, 0, 0, 79, 0]"] ;
1003 -> 1007 ;
1008 [label="X[5] <= 991.0\ngini = 0.346\nsamples = 9\nvalue = [0, 0, 2, 0, 0, 7, 0]"] ;
998 -> 1008 ;
1009 [label="gini = 0.0\nsamples = 6\nvalue = [0, 0, 0, 0, 0, 6, 0]"] ;
1008 -> 1009 ;
1010 [label="X[0] <= 2392.5\ngini = 0.444\nsamples = 3\nvalue = [0, 0, 2, 0, 0, 1, 0]"] ;
1008 -> 1010 ;
1011 [label="gini = 0.0\nsamples = 1\nvalue = [0, 0, 0, 0, 0, 1, 0]"] ;
1010 -> 1011 ;
1012 [label="gini = 0.0\nsamples = 2\nvalue = [0, 0, 2, 0, 0, 0, 0]"] ;
1010 -> 1012 ;
1013 [label="gini = 0.0\nsamples = 1\nvalue = [0, 1, 0, 0, 0, 0, 0]"] ;
991 -> 1013 ;
1014 [label="gini = 0.0\nsamples = 2\nvalue = [0, 0, 2, 0, 0, 0, 0]"] ;
988 -> 1014 ;
1015 [label="gini = 0.0\nsamples = 2\nvalue = [0, 0, 0, 0, 2, 0, 0]"] ;
987 -> 1015 ;
1016 [label="X[0] <= 2397.5\ngini = 0.639\nsamples = 798\nvalue = [0, 41, 418, 54, 73, 212, 0]"] ;
966 -> 1016 ;
1017 [label="X[9] <= 1458.0\ngini = 0.637\nsamples = 107\nvalue = [0, 0, 35, 49, 0, 23, 0]"] ;
1016 -> 1017 ;
1018 [label="X[5] <= 861.0\ngini = 0.568\nsamples = 61\nvalue = [0, 0, 33, 6, 0, 22, 0]"] ;
1017 -> 1018 ;
1019 [label="X[9] <= 1010.5\ngini = 0.542\nsamples = 34\nvalue = [0, 0, 11, 3, 0, 20, 0]"] ;
1018 -> 1019 ;
1020 [label="X[6] <= 238.0\ngini = 0.601\nsamples = 23\nvalue = [0, 0, 11, 3, 0, 9, 0]"] ;
1019 -> 1020 ;
1021 [label="X[5] <= 711.0\ngini = 0.43\nsamples = 11\nvalue = [0, 0, 1, 2, 0, 8, 0]"] ;
1020 -> 1021 ;
1022 [label="X[6] <= 193.0\ngini = 0.219\nsamples = 8\nvalue = [0, 0, 1, 0, 0, 7, 0]"] ;
1021 -> 1022 ;
1023 [label="gini = 0.0\nsamples = 1\nvalue = [0, 0, 1, 0, 0, 0, 0]"] ;
1022 -> 1023 ;
1024 [label="gini = 0.0\nsamples = 7\nvalue = [0, 0, 0, 0, 0, 7, 0]"] ;
1022 -> 1024 ;
1025 [label="X[4] <= 116.0\ngini = 0.444\nsamples = 3\nvalue = [0, 0, 0, 2, 0, 1, 0]"] ;
1021 -> 1025 ;
1026 [label="gini = 0.0\nsamples = 2\nvalue = [0, 0, 0, 2, 0, 0, 0]"] ;
1025 -> 1026 ;
1027 [label="gini = 0.0\nsamples = 1\nvalue = [0, 0, 0, 0, 0, 1, 0]"] ;
1025 -> 1027 ;
1028 [label="X[9] <= 438.0\ngini = 0.292\nsamples = 12\nvalue = [0, 0, 10, 1, 0, 1, 0]"] ;
1020 -> 1028 ;
1029 [label="X[4] <= 63.0\ngini = 0.5\nsamples = 2\nvalue = [0, 0, 0, 1, 0, 1, 0]"] ;
1028 -> 1029 ;
1030 [label="gini = 0.0\nsamples = 1\nvalue = [0, 0, 0, 0, 0, 1, 0]"] ;
1029 -> 1030 ;
1031 [label="gini = 0.0\nsamples = 1\nvalue = [0, 0, 0, 1, 0, 0, 0]"] ;
1029 -> 1031 ;
1032 [label="gini = 0.0\nsamples = 10\nvalue = [0, 0, 10, 0, 0, 0, 0]"] ;
1028 -> 1032 ;
1033 [label="gini = 0.0\nsamples = 11\nvalue = [0, 0, 0, 0, 0, 11, 0]"] ;
1019 -> 1033 ;
1034 [label="X[2] <= 20.0\ngini = 0.318\nsamples = 27\nvalue = [0, 0, 22, 3, 0, 2, 0]"] ;
1018 -> 1034 ;
1035 [label="X[8] <= 170.5\ngini = 0.159\nsamples = 23\nvalue = [0, 0, 21, 2, 0, 0, 0]"] ;
1034 -> 1035 ;
1036 [label="X[9] <= 672.5\ngini = 0.087\nsamples = 22\nvalue = [0, 0, 21, 1, 0, 0, 0]"] ;
1035 -> 1036 ;
1037 [label="X[8] <= 119.0\ngini = 0.32\nsamples = 5\nvalue = [0, 0, 4, 1, 0, 0, 0]"] ;
1036 -> 1037 ;
1038 [label="gini = 0.0\nsamples = 1\nvalue = [0, 0, 0, 1, 0, 0, 0]"] ;
1037 -> 1038 ;
1039 [label="gini = 0.0\nsamples = 4\nvalue = [0, 0, 4, 0, 0, 0, 0]"] ;
1037 -> 1039 ;
1040 [label="gini = 0.0\nsamples = 17\nvalue = [0, 0, 17, 0, 0, 0, 0]"] ;
1036 -> 1040 ;
1041 [label="gini = 0.0\nsamples = 1\nvalue = [0, 0, 0, 1, 0, 0, 0]"] ;
1035 -> 1041 ;
1042 [label="X[1] <= 99.5\ngini = 0.625\nsamples = 4\nvalue = [0, 0, 1, 1, 0, 2, 0]"] ;
1034 -> 1042 ;
1043 [label="gini = 0.0\nsamples = 2\nvalue = [0, 0, 0, 0, 0, 2, 0]"] ;
1042 -> 1043 ;
1044 [label="X[9] <= 477.5\ngini = 0.5\nsamples = 2\nvalue = [0, 0, 1, 1, 0, 0, 0]"] ;
1042 -> 1044 ;
1045 [label="gini = 0.0\nsamples = 1\nvalue = [0, 0, 1, 0, 0, 0, 0]"] ;
1044 -> 1045 ;
1046 [label="gini = 0.0\nsamples = 1\nvalue = [0, 0, 0, 1, 0, 0, 0]"] ;
1044 -> 1046 ;
1047 [label="X[3] <= 150.5\ngini = 0.124\nsamples = 46\nvalue = [0, 0, 2, 43, 0, 1, 0]"] ;
1017 -> 1047 ;
1048 [label="gini = 0.0\nsamples = 1\nvalue = [0, 0, 0, 0, 0, 1, 0]"] ;
1047 -> 1048 ;
1049 [label="X[6] <= 212.5\ngini = 0.085\nsamples = 45\nvalue = [0, 0, 2, 43, 0, 0, 0]"] ;
1047 -> 1049 ;
1050 [label="gini = 0.0\nsamples = 1\nvalue = [0, 0, 1, 0, 0, 0, 0]"] ;
1049 -> 1050 ;
1051 [label="X[0] <= 2393.0\ngini = 0.044\nsamples = 44\nvalue = [0, 0, 1, 43, 0, 0, 0]"] ;
1049 -> 1051 ;
1052 [label="gini = 0.0\nsamples = 40\nvalue = [0, 0, 0, 40, 0, 0, 0]"] ;
1051 -> 1052 ;
1053 [label="X[5] <= 596.5\ngini = 0.375\nsamples = 4\nvalue = [0, 0, 1, 3, 0, 0, 0]"] ;
1051 -> 1053 ;
1054 [label="gini = 0.0\nsamples = 1\nvalue = [0, 0, 1, 0, 0, 0, 0]"] ;
1053 -> 1054 ;
1055 [label="gini = 0.0\nsamples = 3\nvalue = [0, 0, 0, 3, 0, 0, 0]"] ;
1053 -> 1055 ;
1056 [label="X[4] <= 26.5\ngini = 0.603\nsamples = 691\nvalue = [0, 41, 383, 5, 73, 189, 0]"] ;
1016 -> 1056 ;
1057 [label="X[0] <= 2551.0\ngini = 0.705\nsamples = 205\nvalue = [0, 17, 78, 1, 61, 48, 0]"] ;
1056 -> 1057 ;
1058 [label="X[4] <= 13.5\ngini = 0.554\nsamples = 73\nvalue = [0, 4, 41, 1, 1, 26, 0]"] ;
1057 -> 1058 ;
1059 [label="X[0] <= 2427.5\ngini = 0.563\nsamples = 36\nvalue = [0, 3, 14, 0, 0, 19, 0]"] ;
1058 -> 1059 ;
1060 [label="X[9] <= 330.5\ngini = 0.219\nsamples = 8\nvalue = [0, 0, 7, 0, 0, 1, 0]"] ;
1059 -> 1060 ;
1061 [label="gini = 0.0\nsamples = 1\nvalue = [0, 0, 0, 0, 0, 1, 0]"] ;
1060 -> 1061 ;
1062 [label="gini = 0.0\nsamples = 7\nvalue = [0, 0, 7, 0, 0, 0, 0]"] ;
1060 -> 1062 ;
1063 [label="X[0] <= 2533.5\ngini = 0.513\nsamples = 28\nvalue = [0, 3, 7, 0, 0, 18, 0]"] ;
1059 -> 1063 ;
1064 [label="X[2] <= 16.5\ngini = 0.355\nsamples = 23\nvalue = [0, 1, 4, 0, 0, 18, 0]"] ;
1063 -> 1064 ;
1065 [label="X[9] <= 1503.5\ngini = 0.254\nsamples = 21\nvalue = [0, 1, 2, 0, 0, 18, 0]"] ;
1064 -> 1065 ;
1066 [label="X[3] <= 87.5\ngini = 0.105\nsamples = 18\nvalue = [0, 1, 0, 0, 0, 17, 0]"] ;
1065 -> 1066 ;
1067 [label="gini = 0.0\nsamples = 1\nvalue = [0, 1, 0, 0, 0, 0, 0]"] ;
1066 -> 1067 ;
1068 [label="gini = 0.0\nsamples = 17\nvalue = [0, 0, 0, 0, 0, 17, 0]"] ;
